<?xml version="1.0"?>
<opencv_storage>
<svm type_id="opencv-ml-svm">
  <svm_type>C_SVC</svm_type>
  <kernel><type>LINEAR</type></kernel>
  <C>1.</C>
  <term_criteria><epsilon>2.2204460492503131e-016</epsilon>
    <iterations>1000</iterations></term_criteria>
  <var_all>14688</var_all>
  <var_count>14688</var_count>
  <class_count>2</class_count>
  <class_labels type_id="opencv-matrix">
    <rows>1</rows>
    <cols>2</cols>
    <dt>i</dt>
    <data>
      0 1</data></class_labels>
  <sv_total>1</sv_total>
  <support_vectors>
    <_>
      -9.39984318e-007 -9.39984318e-007 -9.39984318e-007 4.61997388e-007
      4.61997388e-007 4.61997388e-007 4.15141358e-007 4.15141358e-007
      4.15141358e-007 -6.56006932e-007 -6.56006932e-007 -6.56006932e-007
      -1.06621201e-006 -1.06621201e-006 -1.06621201e-006
      -1.59090985e-006 -1.59090985e-006 -1.59090985e-006
      -1.28436830e-006 -1.28436830e-006 -1.28436830e-006
      -2.05832794e-006 -2.05832794e-006 -2.05832794e-006
      -2.54304882e-006 -2.54304882e-006 -2.54304882e-006
      -3.05668959e-006 -3.05668959e-006 -3.05668959e-006
      -2.31783952e-006 -2.31783952e-006 -2.31783952e-006
      -9.80577056e-007 -9.80577056e-007 -9.80577056e-007 5.42320322e-007
      5.42320322e-007 5.42320322e-007 1.59398428e-006 1.59398428e-006
      1.59398428e-006 2.23220900e-006 2.23220900e-006 2.23220900e-006
      2.68298936e-006 2.68298936e-006 2.68298936e-006 8.45640386e-007
      8.45640386e-007 8.45640386e-007 1.21565176e-006 1.21565176e-006
      1.21565176e-006 -8.92811656e-008 -8.92811656e-008 -8.92811656e-008
      -8.90335514e-007 -8.90335514e-007 -8.90335514e-007
      -8.71889767e-007 -8.71889767e-007 -8.71889767e-007
      -8.80615971e-007 -8.80615971e-007 -8.80615971e-007
      -8.99330587e-007 -8.99330587e-007 -8.99330587e-007
      -1.04383491e-006 -1.04383491e-006 -1.04383491e-006
      -1.15419448e-006 -1.15419448e-006 -1.15419448e-006
      -2.13231965e-006 -2.13231965e-006 -2.13231965e-006
      -1.77730021e-006 -1.77730021e-006 -1.77730021e-006
      -1.09475354e-006 -1.09475354e-006 -1.09475354e-006 7.35958906e-007
      7.35958906e-007 7.35958906e-007 2.18373913e-007 2.18373913e-007
      2.18373913e-007 -1.44343062e-006 -1.44343062e-006 -1.44343062e-006
      -2.18081846e-006 -2.18081846e-006 -2.18081846e-006
      -2.58433943e-006 -2.58433943e-006 -2.58433943e-006
      -2.03554441e-006 -2.03554441e-006 -2.03554441e-006
      -1.88624790e-006 -1.88624790e-006 -1.88624790e-006
      -2.02194656e-006 -2.02194656e-006 -2.02194656e-006
      -1.99709211e-006 -1.99709211e-006 -1.99709211e-006
      -1.17873992e-006 -1.17873992e-006 -1.17873992e-006
      -8.10271160e-007 -8.10271160e-007 -8.10271160e-007
      -9.13850783e-007 -9.13850783e-007 -9.13850783e-007
      -1.06236803e-006 -1.06236803e-006 -1.06236803e-006
      -8.11701284e-007 -8.11701284e-007 -8.11701284e-007
      -8.75799685e-007 -8.75799685e-007 -8.75799685e-007
      -1.78062032e-006 -1.78062032e-006 -1.78062032e-006
      -3.15904754e-006 -3.15904754e-006 -3.15904754e-006
      -2.75215370e-006 -2.75215370e-006 -2.75215370e-006
      -1.53831252e-006 -1.53831252e-006 -1.53831252e-006
      -1.83940949e-006 -1.83940949e-006 -1.83940949e-006
      -3.49419952e-006 -3.49419952e-006 -3.49419952e-006
      -4.70234818e-006 -4.70234818e-006 -4.70234818e-006
      -4.68491226e-006 -4.68491226e-006 -4.68491226e-006
      -4.37908693e-006 -4.37908693e-006 -4.37908693e-006
      -4.10760140e-006 -4.10760140e-006 -4.10760140e-006
      -2.95033396e-006 -2.95033396e-006 -2.95033396e-006
      -2.61283412e-006 -2.61283412e-006 -2.61283412e-006
      -2.19127514e-006 -2.19127514e-006 -2.19127514e-006
      -1.94586710e-006 -1.94586710e-006 -1.94586710e-006
      -1.75667606e-006 -1.75667606e-006 -1.75667606e-006
      -1.45162869e-006 -1.45162869e-006 -1.45162869e-006 6.18659726e-007
      6.18659726e-007 6.18659726e-007 -3.38055401e-007 -3.38055401e-007
      -3.38055401e-007 -1.11024448e-007 -1.11024448e-007
      -1.11024448e-007 1.42868487e-006 1.42868487e-006 1.42868487e-006
      2.30129353e-006 2.30129353e-006 2.30129353e-006 2.67314022e-006
      2.67314022e-006 2.67314022e-006 2.20989546e-006 2.20989546e-006
      2.20989546e-006 2.58918044e-006 2.58918044e-006 2.58918044e-006
      2.68968870e-006 2.68968870e-006 2.68968870e-006 2.74888794e-006
      2.74888794e-006 2.74888794e-006 5.33390221e-006 5.33390221e-006
      5.33390221e-006 6.10962434e-006 6.10962434e-006 6.10962434e-006
      5.84616009e-006 5.84616009e-006 5.84616009e-006 6.22777316e-006
      6.22777316e-006 6.22777316e-006 6.83357302e-006 6.83357302e-006
      6.83357302e-006 4.94996129e-006 4.94996129e-006 4.94996129e-006
      4.38814322e-006 4.38814322e-006 4.38814322e-006 3.37920051e-006
      3.37920051e-006 3.37920051e-006 2.74148601e-006 2.74148601e-006
      2.74148601e-006 2.94991969e-006 2.94991969e-006 2.94991969e-006
      2.39827204e-006 2.39827204e-006 2.39827204e-006 1.85249007e-006
      1.85249007e-006 1.85249007e-006 2.35838388e-006 2.35838388e-006
      2.35838388e-006 3.45774538e-006 3.45774538e-006 3.45774538e-006
      1.39764052e-006 1.39764052e-006 1.39764052e-006 7.03315891e-007
      7.03315891e-007 7.03315891e-007 6.90224567e-007 6.90224567e-007
      6.90224567e-007 7.11982011e-007 7.11982011e-007 7.11982011e-007
      8.28475322e-007 8.28475322e-007 8.28475322e-007 6.74026467e-007
      6.74026467e-007 6.74026467e-007 1.44146577e-006 1.44146577e-006
      1.44146577e-006 9.71025429e-007 9.71025429e-007 9.71025429e-007
      1.19000595e-006 1.19000595e-006 1.19000595e-006 -6.09319272e-007
      -6.09319272e-007 -6.09319272e-007 -7.23044081e-007
      -7.23044081e-007 -7.23044081e-007 -1.99475423e-007
      -1.99475423e-007 -1.99475423e-007 -2.91513004e-007
      -2.91513004e-007 -2.91513004e-007 -6.95924768e-007
      -6.95924768e-007 -6.95924768e-007 -4.22154358e-007
      -4.22154358e-007 -4.22154358e-007 6.57015562e-007 6.57015562e-007
      6.57015562e-007 1.53188375e-006 1.53188375e-006 1.53188375e-006
      1.51276743e-006 1.51276743e-006 1.51276743e-006 1.60021432e-006
      1.60021432e-006 1.60021432e-006 1.67591850e-006 1.67591850e-006
      1.67591850e-006 1.95357597e-006 1.95357597e-006 1.95357597e-006
      6.33949284e-008 6.33949284e-008 6.33949284e-008 1.73643673e-006
      1.73643673e-006 1.73643673e-006 2.53619351e-006 2.53619351e-006
      2.53619351e-006 3.10902487e-006 3.10902487e-006 3.10902487e-006
      4.64341610e-006 4.64341610e-006 4.64341610e-006 5.81851828e-006
      5.81851828e-006 5.81851828e-006 5.18599290e-006 5.18599290e-006
      5.18599290e-006 4.34478125e-006 4.34478125e-006 4.34478125e-006
      5.10117343e-006 5.10117343e-006 5.10117343e-006 6.11207270e-006
      6.11207270e-006 6.11207270e-006 7.06782748e-006 7.06782748e-006
      7.06782748e-006 7.18348656e-006 7.18348656e-006 7.18348656e-006
      7.03860860e-006 7.03860860e-006 7.03860860e-006 7.03935848e-006
      7.03935848e-006 7.03935848e-006 5.40198016e-006 5.40198016e-006
      5.40198016e-006 3.69333134e-006 3.69333134e-006 3.69333134e-006
      3.38495875e-006 3.38495875e-006 3.38495875e-006 3.61757179e-006
      3.61757179e-006 3.61757179e-006 4.01881198e-006 4.01881198e-006
      4.01881198e-006 3.66603990e-006 3.66603990e-006 3.66603990e-006
      3.40079669e-006 3.40079669e-006 3.40079669e-006 2.82375186e-006
      2.82375186e-006 2.82375186e-006 1.99869828e-006 1.99869828e-006
      1.99869828e-006 1.28587692e-006 1.28587692e-006 1.28587692e-006
      5.39637597e-008 5.39637597e-008 5.39637597e-008 -2.10957538e-007
      -2.10957538e-007 -2.10957538e-007 7.66304026e-007 7.66304026e-007
      7.66304026e-007 1.33557114e-006 1.33557114e-006 1.33557114e-006
      9.60269290e-007 9.60269290e-007 9.60269290e-007 1.17774653e-006
      1.17774653e-006 1.17774653e-006 1.11012025e-006 1.11012025e-006
      1.11012025e-006 6.45127614e-007 6.45127614e-007 6.45127614e-007
      -2.12077839e-006 -2.12077839e-006 -2.12077839e-006
      -1.01231853e-006 -1.01231853e-006 -1.01231853e-006
      -1.38911460e-007 -1.38911460e-007 -1.38911460e-007
      -1.87399428e-006 -1.87399428e-006 -1.87399428e-006
      -2.11299516e-006 -2.11299516e-006 -2.11299516e-006
      -6.40054566e-007 -6.40054566e-007 -6.40054566e-007
      -4.79577295e-007 -4.79577295e-007 -4.79577295e-007
      -4.13679658e-007 -4.13679658e-007 -4.13679658e-007
      -1.41431144e-006 -1.41431144e-006 -1.41431144e-006
      -1.96921405e-006 -1.96921405e-006 -1.96921405e-006
      -1.65254971e-006 -1.65254971e-006 -1.65254971e-006
      -1.25449640e-006 -1.25449640e-006 -1.25449640e-006 2.86686515e-007
      2.86686515e-007 2.86686515e-007 2.93945141e-006 2.93945141e-006
      2.93945141e-006 2.72621787e-006 2.72621787e-006 2.72621787e-006
      1.10084841e-006 1.10084841e-006 1.10084841e-006 -1.52811424e-006
      -1.52811424e-006 -1.52811424e-006 -2.41012003e-007
      -2.41012003e-007 -2.41012003e-007 -9.89551552e-008
      -9.89551552e-008 -9.89551552e-008 -5.31195951e-007
      -5.31195951e-007 -5.31195951e-007 -2.57737565e-006
      -2.57737565e-006 -2.57737565e-006 -4.29392094e-006
      -4.29392094e-006 -4.29392094e-006 -5.22073606e-006
      -5.22073606e-006 -5.22073606e-006 -2.62663093e-006
      -2.62663093e-006 -2.62663093e-006 -3.39867825e-006
      -3.39867825e-006 -3.39867825e-006 -2.92701520e-006
      -2.92701520e-006 -2.92701520e-006 -1.75138950e-006
      -1.75138950e-006 -1.75138950e-006 -2.36354526e-006
      -2.36354526e-006 -2.36354526e-006 -4.27123780e-007
      -4.27123780e-007 -4.27123780e-007 1.26110280e-007 1.26110280e-007
      1.26110280e-007 1.17825607e-007 1.17825607e-007 1.17825607e-007
      7.94387745e-007 7.94387745e-007 7.94387745e-007 7.79840036e-007
      7.79840036e-007 7.79840036e-007 8.02379589e-007 8.02379589e-007
      8.02379589e-007 6.93901711e-007 6.93901711e-007 6.93901711e-007
      3.01636938e-008 3.01636938e-008 3.01636938e-008 -6.34113917e-007
      -6.34113917e-007 -6.34113917e-007 -6.71746591e-007
      -6.71746591e-007 -6.71746591e-007 -1.56189799e-006
      -1.56189799e-006 -1.56189799e-006 -9.18358239e-007
      -9.18358239e-007 -9.18358239e-007 -2.09750624e-006
      -2.09750624e-006 -2.09750624e-006 -2.80869983e-007
      -2.80869983e-007 -2.80869983e-007 -4.46925483e-008
      -4.46925483e-008 -4.46925483e-008 -7.55241345e-008
      -7.55241345e-008 -7.55241345e-008 -5.67604445e-007
      -5.67604445e-007 -5.67604445e-007 -1.62585911e-006
      -1.62585911e-006 -1.62585911e-006 -2.39372844e-006
      -2.39372844e-006 -2.39372844e-006 -2.88747788e-006
      -2.88747788e-006 -2.88747788e-006 -4.36809387e-006
      -4.36809387e-006 -4.36809387e-006 -6.08771097e-006
      -6.08771097e-006 -6.08771097e-006 -5.58160309e-006
      -5.58160309e-006 -5.58160309e-006 -5.26742542e-006
      -5.26742542e-006 -5.26742542e-006 -5.04396394e-006
      -5.04396394e-006 -5.04396394e-006 -4.59328066e-006
      -4.59328066e-006 -4.59328066e-006 -4.31899662e-006
      -4.31899662e-006 -4.31899662e-006 -4.11657948e-006
      -4.11657948e-006 -4.11657948e-006 -4.10764324e-006
      -4.10764324e-006 -4.10764324e-006 -3.94816243e-006
      -3.94816243e-006 -3.94816243e-006 -3.01523824e-006
      -3.01523824e-006 -3.01523824e-006 -2.70203509e-006
      -2.70203509e-006 -2.70203509e-006 -2.47576236e-006
      -2.47576236e-006 -2.47576236e-006 -2.35313587e-006
      -2.35313587e-006 -2.35313587e-006 -1.87175101e-006
      -1.87175101e-006 -1.87175101e-006 -1.43624186e-006
      -1.43624186e-006 -1.43624186e-006 2.51161083e-007 2.51161083e-007
      2.51161083e-007 6.91556977e-007 6.91556977e-007 6.91556977e-007
      1.20199013e-006 1.20199013e-006 1.20199013e-006 1.01325713e-006
      1.01325713e-006 1.01325713e-006 2.34782206e-007 2.34782206e-007
      2.34782206e-007 2.35821153e-006 2.35821153e-006 2.35821153e-006
      2.45033789e-006 2.45033789e-006 2.45033789e-006 3.55436737e-006
      3.55436737e-006 3.55436737e-006 3.98002885e-006 3.98002885e-006
      3.98002885e-006 3.85011299e-006 3.85011299e-006 3.85011299e-006
      2.09337350e-006 2.09337350e-006 2.09337350e-006 4.11099791e-007
      4.11099791e-007 4.11099791e-007 1.19910533e-006 1.19910533e-006
      1.19910533e-006 1.54332338e-006 1.54332338e-006 1.54332338e-006
      1.53316751e-006 1.53316751e-006 1.53316751e-006 1.20398647e-006
      1.20398647e-006 1.20398647e-006 7.00281078e-007 7.00281078e-007
      7.00281078e-007 1.07952178e-006 1.07952178e-006 1.07952178e-006
      5.89220917e-007 5.89220917e-007 5.89220917e-007 -9.62908643e-007
      -9.62908643e-007 -9.62908643e-007 -2.51264510e-007
      -2.51264510e-007 -2.51264510e-007 -2.16144547e-010
      -2.16144547e-010 -2.16144547e-010 -7.06500828e-007
      -7.06500828e-007 -7.06500828e-007 -1.98187945e-006
      -1.98187945e-006 -1.98187945e-006 -1.80497534e-006
      -1.80497534e-006 -1.80497534e-006 -1.31517243e-006
      -1.31517243e-006 -1.31517243e-006 6.43622172e-007 6.43622172e-007
      6.43622172e-007 -4.85120779e-007 -4.85120779e-007 -4.85120779e-007
      -2.60871434e-006 -2.60871434e-006 -2.60871434e-006
      -2.61776722e-006 -2.61776722e-006 -2.61776722e-006
      -1.94030486e-006 -1.94030486e-006 -1.94030486e-006
      -1.41423061e-006 -1.41423061e-006 -1.41423061e-006
      -6.32304136e-007 -6.32304136e-007 -6.32304136e-007 1.02016259e-006
      1.02016259e-006 1.02016259e-006 2.07321682e-006 2.07321682e-006
      2.07321682e-006 1.92943548e-006 1.92943548e-006 1.92943548e-006
      2.30154228e-006 2.30154228e-006 2.30154228e-006 3.43569877e-006
      3.43569877e-006 3.43569877e-006 2.50337371e-006 2.50337371e-006
      2.50337371e-006 1.89395053e-006 1.89395053e-006 1.89395053e-006
      1.91997469e-006 1.91997469e-006 1.91997469e-006 2.31638637e-006
      2.31638637e-006 2.31638637e-006 2.00794534e-006 2.00794534e-006
      2.00794534e-006 1.88288402e-006 1.88288402e-006 1.88288402e-006
      1.25736085e-006 1.25736085e-006 1.25736085e-006 -5.71411249e-007
      -5.71411249e-007 -5.71411249e-007 -2.05734955e-006
      -2.05734955e-006 -2.05734955e-006 -2.14604393e-006
      -2.14604393e-006 -2.14604393e-006 -2.52038745e-007
      -2.52038745e-007 -2.52038745e-007 2.45734918e-006 2.45734918e-006
      2.45734918e-006 3.56274700e-006 3.56274700e-006 3.56274700e-006
      5.22226765e-006 5.22226765e-006 5.22226765e-006 5.16364889e-006
      5.16364889e-006 5.16364889e-006 5.04373156e-006 5.04373156e-006
      5.04373156e-006 3.21168045e-006 3.21168045e-006 3.21168045e-006
      7.45382238e-007 7.45382238e-007 7.45382238e-007 4.69186460e-007
      4.69186460e-007 4.69186460e-007 -1.30848150e-006 -1.30848150e-006
      -1.30848150e-006 -1.69629106e-006 -1.69629106e-006
      -1.69629106e-006 -1.66889708e-006 -1.66889708e-006
      -1.66889708e-006 -2.00705472e-006 -2.00705472e-006
      -2.00705472e-006 -3.14730869e-006 -3.14730869e-006
      -3.14730869e-006 -4.11530164e-006 -4.11530164e-006
      -4.11530164e-006 -4.76132209e-006 -4.76132209e-006
      -4.76132209e-006 -4.74478975e-006 -4.74478975e-006
      -4.74478975e-006 -3.84012628e-006 -3.84012628e-006
      -3.84012628e-006 -1.94213112e-006 -1.94213112e-006
      -1.94213112e-006 -1.59034380e-006 -1.59034380e-006
      -1.59034380e-006 -1.55135842e-006 -1.55135842e-006
      -1.55135842e-006 -9.68864015e-007 -9.68864015e-007
      -9.68864015e-007 -1.00550596e-006 -1.00550596e-006
      -1.00550596e-006 -1.58035141e-006 -1.58035141e-006
      -1.58035141e-006 -2.61880587e-007 -2.61880587e-007
      -2.61880587e-007 -1.04643527e-006 -1.04643527e-006
      -1.04643527e-006 1.40788723e-006 1.40788723e-006 1.40788723e-006
      7.96452525e-007 7.96452525e-007 7.96452525e-007 4.13011065e-007
      4.13011065e-007 4.13011065e-007 1.11197562e-006 1.11197562e-006
      1.11197562e-006 2.38090465e-007 2.38090465e-007 2.38090465e-007
      1.80241364e-006 1.80241364e-006 1.80241364e-006 3.14426484e-006
      3.14426484e-006 3.14426484e-006 4.21751520e-006 4.21751520e-006
      4.21751520e-006 4.21771574e-006 4.21771574e-006 4.21771574e-006
      3.95217876e-006 3.95217876e-006 3.95217876e-006 7.47973945e-006
      7.47973945e-006 7.47973945e-006 7.54701114e-006 7.54701114e-006
      7.54701114e-006 5.42715043e-006 5.42715043e-006 5.42715043e-006
      4.63883407e-006 4.63883407e-006 4.63883407e-006 2.79836036e-006
      2.79836036e-006 2.79836036e-006 1.50278959e-006 1.50278959e-006
      1.50278959e-006 4.17439969e-006 4.17439969e-006 4.17439969e-006
      4.54329984e-006 4.54329984e-006 4.54329984e-006 4.10181656e-006
      4.10181656e-006 4.10181656e-006 3.81755171e-006 3.81755171e-006
      3.81755171e-006 3.70016778e-006 3.70016778e-006 3.70016778e-006
      2.60625029e-006 2.60625029e-006 2.60625029e-006 1.98455359e-006
      1.98455359e-006 1.98455359e-006 2.10515554e-006 2.10515554e-006
      2.10515554e-006 2.32100660e-006 2.32100660e-006 2.32100660e-006
      2.44005355e-006 2.44005355e-006 2.44005355e-006 2.88325737e-006
      2.88325737e-006 2.88325737e-006 3.43850365e-006 3.43850365e-006
      3.43850365e-006 3.59917749e-006 3.59917749e-006 3.59917749e-006
      4.35460834e-006 4.35460834e-006 4.35460834e-006 4.53530311e-006
      4.53530311e-006 4.53530311e-006 4.41117163e-006 4.41117163e-006
      4.41117163e-006 4.22327548e-006 4.22327548e-006 4.22327548e-006
      2.43714408e-006 2.43714408e-006 2.43714408e-006 -1.24675088e-008
      -1.24675088e-008 -1.24675088e-008 -1.06129608e-006
      -1.06129608e-006 -1.06129608e-006 -1.27684609e-006
      -1.27684609e-006 -1.27684609e-006 -1.21607638e-006
      -1.21607638e-006 -1.21607638e-006 -1.31692445e-007
      -1.31692445e-007 -1.31692445e-007 1.08335541e-006 1.08335541e-006
      1.08335541e-006 1.79752953e-006 1.79752953e-006 1.79752953e-006
      1.90047876e-006 1.90047876e-006 1.90047876e-006 6.24852248e-007
      6.24852248e-007 6.24852248e-007 -1.27442070e-006 -1.27442070e-006
      -1.27442070e-006 -1.89600985e-006 -1.89600985e-006
      -1.89600985e-006 -2.01456032e-006 -2.01456032e-006
      -2.01456032e-006 -3.85839940e-006 -3.85839940e-006
      -3.85839940e-006 -3.60087279e-006 -3.60087279e-006
      -3.60087279e-006 -2.35466382e-006 -2.35466382e-006
      -2.35466382e-006 -1.44953469e-006 -1.44953469e-006
      -1.44953469e-006 -6.45741409e-007 -6.45741409e-007
      -6.45741409e-007 -3.39855120e-007 -3.39855120e-007
      -3.39855120e-007 -4.86389808e-007 -4.86389808e-007
      -4.86389808e-007 -6.94965820e-007 -6.94965820e-007
      -6.94965820e-007 -1.55181368e-007 -1.55181368e-007
      -1.55181368e-007 6.07110849e-007 6.07110849e-007 6.07110849e-007
      5.91370849e-007 5.91370849e-007 5.91370849e-007 1.16521801e-006
      1.16521801e-006 1.16521801e-006 1.47944706e-006 1.47944706e-006
      1.47944706e-006 2.04623393e-006 2.04623393e-006 2.04623393e-006
      4.25590952e-006 4.25590952e-006 4.25590952e-006 2.92216009e-006
      2.92216009e-006 2.92216009e-006 1.47738035e-006 1.47738035e-006
      1.47738035e-006 -3.23276367e-006 -3.23276367e-006 -3.23276367e-006
      -2.97530391e-006 -2.97530391e-006 -2.97530391e-006
      -2.39522910e-006 -2.39522910e-006 -2.39522910e-006
      -1.71748218e-006 -1.71748218e-006 -1.71748218e-006
      -1.77984396e-006 -1.77984396e-006 -1.77984396e-006
      -2.18076912e-006 -2.18076912e-006 -2.18076912e-006
      -2.56302087e-006 -2.56302087e-006 -2.56302087e-006
      -1.29251237e-006 -1.29251237e-006 -1.29251237e-006 1.58131229e-006
      1.58131229e-006 1.58131229e-006 -1.02503782e-006 -1.02503782e-006
      -1.02503782e-006 -1.65523454e-006 -1.65523454e-006
      -1.65523454e-006 -1.08223890e-006 -1.08223890e-006
      -1.08223890e-006 -5.17483159e-007 -5.17483159e-007
      -5.17483159e-007 -1.08973531e-007 -1.08973531e-007
      -1.08973531e-007 -3.03937554e-007 -3.03937554e-007
      -3.03937554e-007 -5.99982513e-007 -5.99982513e-007
      -5.99982513e-007 -8.44676038e-007 -8.44676038e-007
      -8.44676038e-007 -4.75428948e-007 -4.75428948e-007
      -4.75428948e-007 3.99830867e-007 3.99830867e-007 3.99830867e-007
      4.65546873e-006 4.65546873e-006 4.65546873e-006 5.82844905e-006
      5.82844905e-006 5.82844905e-006 6.71035650e-006 6.71035650e-006
      6.71035650e-006 6.59596662e-006 6.59596662e-006 6.59596662e-006
      5.80937376e-006 5.80937376e-006 5.80937376e-006 4.76840023e-006
      4.76840023e-006 4.76840023e-006 3.34120182e-006 3.34120182e-006
      3.34120182e-006 1.51085703e-006 1.51085703e-006 1.51085703e-006
      -1.18154139e-006 -1.18154139e-006 -1.18154139e-006
      -2.04319304e-006 -2.04319304e-006 -2.04319304e-006
      -2.20330480e-006 -2.20330480e-006 -2.20330480e-006
      -1.84903183e-006 -1.84903183e-006 -1.84903183e-006
      -8.16117733e-007 -8.16117733e-007 -8.16117733e-007
      -1.33262020e-007 -1.33262020e-007 -1.33262020e-007
      -1.27251269e-007 -1.27251269e-007 -1.27251269e-007
      -1.20214327e-006 -1.20214327e-006 -1.20214327e-006
      -1.40730219e-006 -1.40730219e-006 -1.40730219e-006
      -6.42043801e-007 -6.42043801e-007 -6.42043801e-007
      -2.37311542e-006 -2.37311542e-006 -2.37311542e-006
      -2.33897276e-006 -2.33897276e-006 -2.33897276e-006
      -3.35229129e-006 -3.35229129e-006 -3.35229129e-006
      -1.55144619e-006 -1.55144619e-006 -1.55144619e-006
      -9.45702482e-007 -9.45702482e-007 -9.45702482e-007
      -1.79579638e-006 -1.79579638e-006 -1.79579638e-006
      -1.93014853e-006 -1.93014853e-006 -1.93014853e-006
      -1.79860990e-006 -1.79860990e-006 -1.79860990e-006
      -1.40399948e-006 -1.40399948e-006 -1.40399948e-006
      -8.42361317e-007 -8.42361317e-007 -8.42361317e-007
      -9.47381693e-007 -9.47381693e-007 -9.47381693e-007
      -3.73812270e-007 -3.73812270e-007 -3.73812270e-007 3.20121387e-008
      3.20121387e-008 3.20121387e-008 1.35684402e-007 1.35684402e-007
      1.35684402e-007 1.97245072e-006 1.97245072e-006 1.97245072e-006
      2.82229053e-006 2.82229053e-006 2.82229053e-006 2.07519383e-006
      2.07519383e-006 2.07519383e-006 1.16001900e-006 1.16001900e-006
      1.16001900e-006 7.88829254e-007 7.88829254e-007 7.88829254e-007
      3.40431143e-007 3.40431143e-007 3.40431143e-007 6.60632679e-007
      6.60632679e-007 6.60632679e-007 -1.66594347e-007 -1.66594347e-007
      -1.66594347e-007 -1.68330507e-006 -1.68330507e-006
      -1.68330507e-006 -1.32292769e-006 -1.32292769e-006
      -1.32292769e-006 -2.27394162e-006 -2.27394162e-006
      -2.27394162e-006 -2.45459250e-006 -2.45459250e-006
      -2.45459250e-006 -1.60386014e-006 -1.60386014e-006
      -1.60386014e-006 -1.65851270e-006 -1.65851270e-006
      -1.65851270e-006 -1.42548402e-007 -1.42548402e-007
      -1.42548402e-007 -3.02051291e-007 -3.02051291e-007
      -3.02051291e-007 -7.43272182e-008 -7.43272182e-008
      -7.43272182e-008 8.13685574e-007 8.13685574e-007 8.13685574e-007
      4.37307506e-007 4.37307506e-007 4.37307506e-007 -6.54744269e-007
      -6.54744269e-007 -6.54744269e-007 4.18373111e-006 4.18373111e-006
      4.18373111e-006 1.36149094e-006 1.36149094e-006 1.36149094e-006
      4.75230581e-006 4.75230581e-006 4.75230581e-006 3.23762447e-006
      3.23762447e-006 3.23762447e-006 3.11190570e-006 3.11190570e-006
      3.11190570e-006 4.71210569e-006 4.71210569e-006 4.71210569e-006
      4.06160325e-006 4.06160325e-006 4.06160325e-006 3.55451834e-006
      3.55451834e-006 3.55451834e-006 3.39545932e-006 3.39545932e-006
      3.39545932e-006 4.28918065e-006 4.28918065e-006 4.28918065e-006
      4.10011262e-006 4.10011262e-006 4.10011262e-006 4.63220067e-006
      4.63220067e-006 4.63220067e-006 6.34664366e-006 6.34664366e-006
      6.34664366e-006 6.04753086e-006 6.04753086e-006 6.04753086e-006
      5.70772045e-006 5.70772045e-006 5.70772045e-006 5.55790939e-006
      5.55790939e-006 5.55790939e-006 4.06017580e-006 4.06017580e-006
      4.06017580e-006 5.32061313e-006 5.32061313e-006 5.32061313e-006
      4.60697584e-006 4.60697584e-006 4.60697584e-006 3.94965809e-006
      3.94965809e-006 3.94965809e-006 4.04685852e-006 4.04685852e-006
      4.04685852e-006 4.27996429e-006 4.27996429e-006 4.27996429e-006
      4.40844133e-006 4.40844133e-006 4.40844133e-006 2.57870374e-006
      2.57870374e-006 2.57870374e-006 2.02902947e-006 2.02902947e-006
      2.02902947e-006 2.06723416e-006 2.06723416e-006 2.06723416e-006
      2.71344356e-006 2.71344356e-006 2.71344356e-006 5.31398973e-006
      5.31398973e-006 5.31398973e-006 6.10478219e-006 6.10478219e-006
      6.10478219e-006 5.14317435e-006 5.14317435e-006 5.14317435e-006
      5.19053947e-006 5.19053947e-006 5.19053947e-006 4.80990957e-006
      4.80990957e-006 4.80990957e-006 4.64131608e-006 4.64131608e-006
      4.64131608e-006 4.53600251e-006 4.53600251e-006 4.53600251e-006
      4.47505090e-006 4.47505090e-006 4.47505090e-006 2.40587997e-006
      2.40587997e-006 2.40587997e-006 8.70068732e-007 8.70068732e-007
      8.70068732e-007 3.02049193e-006 3.02049193e-006 3.02049193e-006
      1.71951217e-006 1.71951217e-006 1.71951217e-006 3.66424189e-008
      3.66424189e-008 3.66424189e-008 1.92192147e-006 1.92192147e-006
      1.92192147e-006 3.59014871e-006 3.59014871e-006 3.59014871e-006
      4.58054183e-006 4.58054183e-006 4.58054183e-006 3.06379229e-006
      3.06379229e-006 3.06379229e-006 2.21877576e-006 2.21877576e-006
      2.21877576e-006 2.05941387e-006 2.05941387e-006 2.05941387e-006
      1.99286478e-006 1.99286478e-006 1.99286478e-006 3.67878421e-008
      3.67878421e-008 3.67878421e-008 -2.31986041e-006 -2.31986041e-006
      -2.31986041e-006 -1.76227911e-006 -1.76227911e-006
      -1.76227911e-006 -8.40662665e-007 -8.40662665e-007
      -8.40662665e-007 -6.03341675e-007 -6.03341675e-007
      -6.03341675e-007 -6.86667590e-007 -6.86667590e-007
      -6.86667590e-007 5.15626368e-007 5.15626368e-007 5.15626368e-007
      4.89684737e-007 4.89684737e-007 4.89684737e-007 -1.67564608e-007
      -1.67564608e-007 -1.67564608e-007 4.47559870e-007 4.47559870e-007
      4.47559870e-007 -8.13521126e-008 -8.13521126e-008 -8.13521126e-008
      -7.12747621e-008 -7.12747621e-008 -7.12747621e-008 1.02067361e-007
      1.02067361e-007 1.02067361e-007 1.04413516e-006 1.04413516e-006
      1.04413516e-006 -7.59906129e-007 -7.59906129e-007 -7.59906129e-007
      7.09764123e-008 7.09764123e-008 7.09764123e-008 -1.58418914e-006
      -1.58418914e-006 -1.58418914e-006 6.04522825e-007 6.04522825e-007
      6.04522825e-007 1.92437051e-006 1.92437051e-006 1.92437051e-006
      2.58586010e-006 2.58586010e-006 2.58586010e-006 2.84935436e-006
      2.84935436e-006 2.84935436e-006 3.69261602e-006 3.69261602e-006
      3.69261602e-006 3.76929142e-006 3.76929142e-006 3.76929142e-006
      3.09045890e-006 3.09045890e-006 3.09045890e-006 2.70758483e-006
      2.70758483e-006 2.70758483e-006 2.47510366e-006 2.47510366e-006
      2.47510366e-006 1.64146650e-006 1.64146650e-006 1.64146650e-006
      9.74200589e-007 9.74200589e-007 9.74200589e-007 -1.52204791e-007
      -1.52204791e-007 -1.52204791e-007 1.23817779e-006 1.23817779e-006
      1.23817779e-006 2.12749183e-006 2.12749183e-006 2.12749183e-006
      1.86763157e-006 1.86763157e-006 1.86763157e-006 8.83369296e-007
      8.83369296e-007 8.83369296e-007 -4.59369289e-007 -4.59369289e-007
      -4.59369289e-007 4.94567871e-008 4.94567871e-008 4.94567871e-008
      -8.68978532e-007 -8.68978532e-007 -8.68978532e-007
      -8.54231388e-008 -8.54231388e-008 -8.54231388e-008
      -4.70228173e-007 -4.70228173e-007 -4.70228173e-007 6.80450285e-007
      6.80450285e-007 6.80450285e-007 1.49288837e-006 1.49288837e-006
      1.49288837e-006 1.95099869e-006 1.95099869e-006 1.95099869e-006
      1.35032121e-006 1.35032121e-006 1.35032121e-006 1.39406347e-006
      1.39406347e-006 1.39406347e-006 3.25448195e-006 3.25448195e-006
      3.25448195e-006 2.95910490e-006 2.95910490e-006 2.95910490e-006
      2.21118626e-006 2.21118626e-006 2.21118626e-006 4.23945630e-006
      4.23945630e-006 4.23945630e-006 1.67084909e-006 1.67084909e-006
      1.67084909e-006 1.07134326e-006 1.07134326e-006 1.07134326e-006
      2.05805136e-007 2.05805136e-007 2.05805136e-007 3.63244155e-008
      3.63244155e-008 3.63244155e-008 -1.18639775e-006 -1.18639775e-006
      -1.18639775e-006 -3.70952563e-007 -3.70952563e-007
      -3.70952563e-007 3.15730659e-007 3.15730659e-007 3.15730659e-007
      -6.71390126e-007 -6.71390126e-007 -6.71390126e-007 2.09576541e-007
      2.09576541e-007 2.09576541e-007 7.87499914e-007 7.87499914e-007
      7.87499914e-007 1.71604938e-007 1.71604938e-007 1.71604938e-007
      9.36787501e-007 9.36787501e-007 9.36787501e-007 2.20962397e-006
      2.20962397e-006 2.20962397e-006 9.81593985e-007 9.81593985e-007
      9.81593985e-007 5.51805272e-007 5.51805272e-007 5.51805272e-007
      5.26264756e-008 5.26264756e-008 5.26264756e-008 1.67874998e-006
      1.67874998e-006 1.67874998e-006 6.15548515e-007 6.15548515e-007
      6.15548515e-007 -6.15440797e-007 -6.15440797e-007 -6.15440797e-007
      -1.03421416e-006 -1.03421416e-006 -1.03421416e-006
      -5.88750538e-007 -5.88750538e-007 -5.88750538e-007
      -6.79724337e-007 -6.79724337e-007 -6.79724337e-007
      -6.71625969e-007 -6.71625969e-007 -6.71625969e-007
      -6.40792678e-007 -6.40792678e-007 -6.40792678e-007 4.51069127e-007
      4.51069127e-007 4.51069127e-007 -1.53366295e-006 -1.53366295e-006
      -1.53366295e-006 -1.87067440e-006 -1.87067440e-006
      -1.87067440e-006 -1.54520819e-006 -1.54520819e-006
      -1.54520819e-006 -1.84186899e-006 -1.84186899e-006
      -1.84186899e-006 -3.78230379e-006 -3.78230379e-006
      -3.78230379e-006 -3.12696875e-006 -3.12696875e-006
      -3.12696875e-006 -3.23834524e-006 -3.23834524e-006
      -3.23834524e-006 -4.59736839e-006 -4.59736839e-006
      -4.59736839e-006 -4.93836569e-006 -4.93836569e-006
      -4.93836569e-006 -5.20923231e-006 -5.20923231e-006
      -5.20923231e-006 -5.48329717e-006 -5.48329717e-006
      -5.48329717e-006 -3.49717925e-006 -3.49717925e-006
      -3.49717925e-006 -3.66266841e-006 -3.66266841e-006
      -3.66266841e-006 -2.55778968e-006 -2.55778968e-006
      -2.55778968e-006 1.85750125e-007 1.85750125e-007 1.85750125e-007
      -4.68796628e-007 -4.68796628e-007 -4.68796628e-007
      -6.00381838e-007 -6.00381838e-007 -6.00381838e-007 2.95300674e-006
      2.95300674e-006 2.95300674e-006 1.00899774e-006 1.00899774e-006
      1.00899774e-006 4.04121238e-006 4.04121238e-006 4.04121238e-006
      4.09838731e-006 4.09838731e-006 4.09838731e-006 4.05705714e-006
      4.05705714e-006 4.05705714e-006 4.54855535e-006 4.54855535e-006
      4.54855535e-006 3.09931079e-006 3.09931079e-006 3.09931079e-006
      1.52244513e-006 1.52244513e-006 1.52244513e-006 1.64077017e-006
      1.64077017e-006 1.64077017e-006 4.24522386e-006 4.24522386e-006
      4.24522386e-006 3.95255893e-006 3.95255893e-006 3.95255893e-006
      2.09168502e-006 2.09168502e-006 2.09168502e-006 3.05645699e-006
      3.05645699e-006 3.05645699e-006 5.17999979e-006 5.17999979e-006
      5.17999979e-006 5.10519521e-006 5.10519521e-006 5.10519521e-006
      5.53339032e-006 5.53339032e-006 5.53339032e-006 4.71477279e-006
      4.71477279e-006 4.71477279e-006 6.04778506e-006 6.04778506e-006
      6.04778506e-006 4.89426429e-006 4.89426429e-006 4.89426429e-006
      4.19527714e-006 4.19527714e-006 4.19527714e-006 4.38170628e-006
      4.38170628e-006 4.38170628e-006 4.71265457e-006 4.71265457e-006
      4.71265457e-006 5.09777601e-006 5.09777601e-006 5.09777601e-006
      7.68544851e-006 7.68544851e-006 7.68544851e-006 5.09827896e-006
      5.09827896e-006 5.09827896e-006 5.36382504e-006 5.36382504e-006
      5.36382504e-006 5.99253281e-006 5.99253281e-006 5.99253281e-006
      6.77397566e-006 6.77397566e-006 6.77397566e-006 7.06637411e-006
      7.06637411e-006 7.06637411e-006 7.09030064e-006 7.09030064e-006
      7.09030064e-006 6.96296274e-006 6.96296274e-006 6.96296274e-006
      5.01713976e-006 5.01713976e-006 5.01713976e-006 5.38296035e-006
      5.38296035e-006 5.38296035e-006 5.02706052e-006 5.02706052e-006
      5.02706052e-006 2.54553697e-006 2.54553697e-006 2.54553697e-006
      1.29064210e-006 1.29064210e-006 1.29064210e-006 -1.76706544e-006
      -1.76706544e-006 -1.76706544e-006 6.94100720e-007 6.94100720e-007
      6.94100720e-007 -3.38548944e-006 -3.38548944e-006 -3.38548944e-006
      -4.47371804e-006 -4.47371804e-006 -4.47371804e-006
      -3.29035151e-006 -3.29035151e-006 -3.29035151e-006
      -1.26492171e-006 -1.26492171e-006 -1.26492171e-006
      -2.14448326e-009 -2.14448326e-009 -2.14448326e-009
      -3.52745843e-007 -3.52745843e-007 -3.52745843e-007
      -2.29348842e-007 -2.29348842e-007 -2.29348842e-007 6.43449809e-008
      6.43449809e-008 6.43449809e-008 4.37443902e-007 4.37443902e-007
      4.37443902e-007 1.80739096e-006 1.80739096e-006 1.80739096e-006
      1.19555114e-006 1.19555114e-006 1.19555114e-006 6.67957920e-007
      6.67957920e-007 6.67957920e-007 -1.54860771e-007 -1.54860771e-007
      -1.54860771e-007 8.30829379e-007 8.30829379e-007 8.30829379e-007
      3.26558325e-006 3.26558325e-006 3.26558325e-006 4.45037722e-006
      4.45037722e-006 4.45037722e-006 3.71311853e-006 3.71311853e-006
      3.71311853e-006 4.11652627e-006 4.11652627e-006 4.11652627e-006
      4.16989542e-006 4.16989542e-006 4.16989542e-006 4.33735704e-006
      4.33735704e-006 4.33735704e-006 4.08629285e-006 4.08629285e-006
      4.08629285e-006 3.81718928e-006 3.81718928e-006 3.81718928e-006
      1.64807238e-006 1.64807238e-006 1.64807238e-006 1.39214740e-006
      1.39214740e-006 1.39214740e-006 -6.81614040e-007 -6.81614040e-007
      -6.81614040e-007 -3.47866006e-007 -3.47866006e-007
      -3.47866006e-007 9.97298116e-007 9.97298116e-007 9.97298116e-007
      2.52190762e-006 2.52190762e-006 2.52190762e-006 2.70695682e-006
      2.70695682e-006 2.70695682e-006 2.66036022e-006 2.66036022e-006
      2.66036022e-006 2.50027006e-006 2.50027006e-006 2.50027006e-006
      2.10642315e-006 2.10642315e-006 2.10642315e-006 1.56343526e-006
      1.56343526e-006 1.56343526e-006 1.40528141e-006 1.40528141e-006
      1.40528141e-006 2.70807482e-006 2.70807482e-006 2.70807482e-006
      3.24783559e-006 3.24783559e-006 3.24783559e-006 2.18833566e-006
      2.18833566e-006 2.18833566e-006 1.24976907e-006 1.24976907e-006
      1.24976907e-006 1.99303304e-006 1.99303304e-006 1.99303304e-006
      2.28850354e-006 2.28850354e-006 2.28850354e-006 1.60798015e-006
      1.60798015e-006 1.60798015e-006 7.60186254e-007 7.60186254e-007
      7.60186254e-007 -1.18339081e-008 -1.18339081e-008 -1.18339081e-008
      9.00393729e-007 9.00393729e-007 9.00393729e-007 2.11346014e-006
      2.11346014e-006 2.11346014e-006 3.17215495e-006 3.17215495e-006
      3.17215495e-006 3.42337466e-006 3.42337466e-006 3.42337466e-006
      3.71887086e-006 3.71887086e-006 3.71887086e-006 3.36924745e-006
      3.36924745e-006 3.36924745e-006 4.13070211e-006 4.13070211e-006
      4.13070211e-006 4.45646174e-006 4.45646174e-006 4.45646174e-006
      4.47176672e-006 4.47176672e-006 4.47176672e-006 4.48864193e-006
      4.48864193e-006 4.48864193e-006 3.06777201e-006 3.06777201e-006
      3.06777201e-006 2.46149540e-007 2.46149540e-007 2.46149540e-007
      -1.94744871e-006 -1.94744871e-006 -1.94744871e-006
      -3.16138244e-006 -3.16138244e-006 -3.16138244e-006
      -2.42027386e-006 -2.42027386e-006 -2.42027386e-006
      -2.46013906e-006 -2.46013906e-006 -2.46013906e-006
      -3.14409704e-006 -3.14409704e-006 -3.14409704e-006
      -1.90862329e-006 -1.90862329e-006 -1.90862329e-006 1.79005713e-006
      1.79005713e-006 1.79005713e-006 2.50358289e-006 2.50358289e-006
      2.50358289e-006 2.17330307e-006 2.17330307e-006 2.17330307e-006
      2.72340958e-006 2.72340958e-006 2.72340958e-006 4.50113703e-006
      4.50113703e-006 4.50113703e-006 3.67613848e-006 3.67613848e-006
      3.67613848e-006 3.27980024e-006 3.27980024e-006 3.27980024e-006
      3.33730782e-006 3.33730782e-006 3.33730782e-006 2.68843246e-006
      2.68843246e-006 2.68843246e-006 4.84346401e-006 4.84346401e-006
      4.84346401e-006 2.65161952e-006 2.65161952e-006 2.65161952e-006
      2.49282925e-006 2.49282925e-006 2.49282925e-006 1.22386041e-006
      1.22386041e-006 1.22386041e-006 1.70621070e-006 1.70621070e-006
      1.70621070e-006 2.62285198e-006 2.62285198e-006 2.62285198e-006
      2.38022903e-006 2.38022903e-006 2.38022903e-006 8.41170163e-007
      8.41170163e-007 8.41170163e-007 -6.43761609e-007 -6.43761609e-007
      -6.43761609e-007 -1.61292053e-006 -1.61292053e-006
      -1.61292053e-006 -1.34901643e-006 -1.34901643e-006
      -1.34901643e-006 -1.16522722e-006 -1.16522722e-006
      -1.16522722e-006 -1.14313673e-006 -1.14313673e-006
      -1.14313673e-006 -1.16844217e-006 -1.16844217e-006
      -1.16844217e-006 -2.56432688e-008 -2.56432688e-008
      -2.56432688e-008 2.03180889e-006 2.03180889e-006 2.03180889e-006
      1.21204391e-006 1.21204391e-006 1.21204391e-006 9.64163974e-007
      9.64163974e-007 9.64163974e-007 -1.65413280e-006 -1.65413280e-006
      -1.65413280e-006 -2.96169537e-006 -2.96169537e-006
      -2.96169537e-006 -4.10189114e-006 -4.10189114e-006
      -4.10189114e-006 -3.81094537e-006 -3.81094537e-006
      -3.81094537e-006 -2.78513221e-006 -2.78513221e-006
      -2.78513221e-006 -3.31538786e-006 -3.31538786e-006
      -3.31538786e-006 -3.32469017e-006 -3.32469017e-006
      -3.32469017e-006 -2.08694428e-006 -2.08694428e-006
      -2.08694428e-006 -2.07434186e-006 -2.07434186e-006
      -2.07434186e-006 -2.49945379e-006 -2.49945379e-006
      -2.49945379e-006 -3.62196204e-007 -3.62196204e-007
      -3.62196204e-007 -7.90628235e-007 -7.90628235e-007
      -7.90628235e-007 3.52368102e-006 3.52368102e-006 3.52368102e-006
      4.20893912e-006 4.20893912e-006 4.20893912e-006 4.84886232e-006
      4.84886232e-006 4.84886232e-006 3.11046165e-006 3.11046165e-006
      3.11046165e-006 8.33559284e-007 8.33559284e-007 8.33559284e-007
      -2.62132085e-006 -2.62132085e-006 -2.62132085e-006
      -2.63654601e-006 -2.63654601e-006 -2.63654601e-006
      -1.72842613e-006 -1.72842613e-006 -1.72842613e-006
      -9.10330471e-007 -9.10330471e-007 -9.10330471e-007 7.27499696e-007
      7.27499696e-007 7.27499696e-007 2.16743297e-006 2.16743297e-006
      2.16743297e-006 2.21492382e-006 2.21492382e-006 2.21492382e-006
      3.22045025e-006 3.22045025e-006 3.22045025e-006 1.99394526e-006
      1.99394526e-006 1.99394526e-006 3.86181091e-006 3.86181091e-006
      3.86181091e-006 4.48819401e-006 4.48819401e-006 4.48819401e-006
      4.49789650e-006 4.49789650e-006 4.49789650e-006 1.14493798e-006
      1.14493798e-006 1.14493798e-006 1.29511193e-006 1.29511193e-006
      1.29511193e-006 1.83747102e-006 1.83747102e-006 1.83747102e-006
      2.61441687e-006 2.61441687e-006 2.61441687e-006 4.10032089e-006
      4.10032089e-006 4.10032089e-006 4.50401240e-006 4.50401240e-006
      4.50401240e-006 3.63790969e-006 3.63790969e-006 3.63790969e-006
      3.89741444e-006 3.89741444e-006 3.89741444e-006 4.68666713e-006
      4.68666713e-006 4.68666713e-006 6.56535940e-006 6.56535940e-006
      6.56535940e-006 7.01592171e-006 7.01592171e-006 7.01592171e-006
      6.00479370e-006 6.00479370e-006 6.00479370e-006 4.07736979e-006
      4.07736979e-006 4.07736979e-006 3.68230940e-006 3.68230940e-006
      3.68230940e-006 2.83343206e-006 2.83343206e-006 2.83343206e-006
      2.48137303e-006 2.48137303e-006 2.48137303e-006 8.76740160e-007
      8.76740160e-007 8.76740160e-007 -2.86176430e-007 -2.86176430e-007
      -2.86176430e-007 -2.11347742e-006 -2.11347742e-006
      -2.11347742e-006 -9.26329051e-007 -9.26329051e-007
      -9.26329051e-007 -2.49492405e-006 -2.49492405e-006
      -2.49492405e-006 -4.25233878e-007 -4.25233878e-007
      -4.25233878e-007 1.50791072e-006 1.50791072e-006 1.50791072e-006
      1.25886459e-006 1.25886459e-006 1.25886459e-006 1.17663797e-006
      1.17663797e-006 1.17663797e-006 -3.07526335e-007 -3.07526335e-007
      -3.07526335e-007 -8.90227966e-007 -8.90227966e-007
      -8.90227966e-007 -1.32769651e-006 -1.32769651e-006
      -1.32769651e-006 -1.79300707e-006 -1.79300707e-006
      -1.79300707e-006 -1.28130739e-006 -1.28130739e-006
      -1.28130739e-006 -1.48737558e-006 -1.48737558e-006
      -1.48737558e-006 -3.71870783e-007 -3.71870783e-007
      -3.71870783e-007 1.77741981e-006 1.77741981e-006 1.77741981e-006
      3.41504710e-006 3.41504710e-006 3.41504710e-006 5.33273760e-006
      5.33273760e-006 5.33273760e-006 6.01781358e-006 6.01781358e-006
      6.01781358e-006 5.14171643e-006 5.14171643e-006 5.14171643e-006
      3.90991818e-006 3.90991818e-006 3.90991818e-006 3.52188522e-006
      3.52188522e-006 3.52188522e-006 2.84196722e-006 2.84196722e-006
      2.84196722e-006 2.20483275e-006 2.20483275e-006 2.20483275e-006
      2.10569488e-006 2.10569488e-006 2.10569488e-006 1.96972019e-006
      1.96972019e-006 1.96972019e-006 2.36827805e-006 2.36827805e-006
      2.36827805e-006 2.97392899e-006 2.97392899e-006 2.97392899e-006
      4.07298830e-006 4.07298830e-006 4.07298830e-006 4.06351819e-006
      4.06351819e-006 4.06351819e-006 4.32788420e-006 4.32788420e-006
      4.32788420e-006 4.39210453e-006 4.39210453e-006 4.39210453e-006
      4.25410963e-006 4.25410963e-006 4.25410963e-006 3.50180062e-006
      3.50180062e-006 3.50180062e-006 2.91468132e-006 2.91468132e-006
      2.91468132e-006 2.64197911e-006 2.64197911e-006 2.64197911e-006
      2.42552073e-006 2.42552073e-006 2.42552073e-006 2.61940795e-006
      2.61940795e-006 2.61940795e-006 2.27557143e-006 2.27557143e-006
      2.27557143e-006 1.46358991e-006 1.46358991e-006 1.46358991e-006
      4.94584924e-007 4.94584924e-007 4.94584924e-007 -9.11930670e-007
      -9.11930670e-007 -9.11930670e-007 -1.29042473e-006
      -1.29042473e-006 -1.29042473e-006 -8.27050712e-007
      -8.27050712e-007 -8.27050712e-007 -6.53277880e-007
      -6.53277880e-007 -6.53277880e-007 3.94501967e-007 3.94501967e-007
      3.94501967e-007 1.52570681e-006 1.52570681e-006 1.52570681e-006
      2.39908468e-006 2.39908468e-006 2.39908468e-006 2.98688724e-006
      2.98688724e-006 2.98688724e-006 2.98874625e-006 2.98874625e-006
      2.98874625e-006 3.02585795e-006 3.02585795e-006 3.02585795e-006
      3.63512140e-006 3.63512140e-006 3.63512140e-006 5.02520152e-006
      5.02520152e-006 5.02520152e-006 5.24001371e-006 5.24001371e-006
      5.24001371e-006 4.25938879e-006 4.25938879e-006 4.25938879e-006
      3.20101412e-006 3.20101412e-006 3.20101412e-006 1.78331345e-006
      1.78331345e-006 1.78331345e-006 -8.07674141e-008 -8.07674141e-008
      -8.07674141e-008 -2.01706925e-007 -2.01706925e-007
      -2.01706925e-007 2.08280039e-006 2.08280039e-006 2.08280039e-006
      3.46563593e-006 3.46563593e-006 3.46563593e-006 2.69250722e-006
      2.69250722e-006 2.69250722e-006 2.78225775e-006 2.78225775e-006
      2.78225775e-006 2.66289999e-006 2.66289999e-006 2.66289999e-006
      3.76455773e-006 3.76455773e-006 3.76455773e-006 2.28855833e-006
      2.28855833e-006 2.28855833e-006 1.51536631e-006 1.51536631e-006
      1.51536631e-006 8.26851931e-007 8.26851931e-007 8.26851931e-007
      1.36646042e-006 1.36646042e-006 1.36646042e-006 3.73554076e-006
      3.73554076e-006 3.73554076e-006 6.19704588e-006 6.19704588e-006
      6.19704588e-006 8.77320781e-006 8.77320781e-006 8.77320781e-006
      8.46037165e-006 8.46037165e-006 8.46037165e-006 8.26954238e-006
      8.26954238e-006 8.26954238e-006 5.86310944e-006 5.86310944e-006
      5.86310944e-006 4.47237971e-006 4.47237971e-006 4.47237971e-006
      6.03376748e-006 6.03376748e-006 6.03376748e-006 6.62136154e-006
      6.62136154e-006 6.62136154e-006 5.73105763e-006 5.73105763e-006
      5.73105763e-006 5.39072880e-006 5.39072880e-006 5.39072880e-006
      3.94922745e-006 3.94922745e-006 3.94922745e-006 3.06006950e-006
      3.06006950e-006 3.06006950e-006 2.80357585e-006 2.80357585e-006
      2.80357585e-006 2.89368495e-006 2.89368495e-006 2.89368495e-006
      3.79210951e-006 3.79210951e-006 3.79210951e-006 3.63658683e-006
      3.63658683e-006 3.63658683e-006 3.28660394e-006 3.28660394e-006
      3.28660394e-006 4.19460957e-006 4.19460957e-006 4.19460957e-006
      5.38108407e-006 5.38108407e-006 5.38108407e-006 4.12557574e-006
      4.12557574e-006 4.12557574e-006 5.57529745e-007 5.57529745e-007
      5.57529745e-007 -6.55005124e-007 -6.55005124e-007 -6.55005124e-007
      -6.24342704e-007 -6.24342704e-007 -6.24342704e-007
      -6.13143925e-007 -6.13143925e-007 -6.13143925e-007
      -1.10572762e-006 -1.10572762e-006 -1.10572762e-006
      -2.82456904e-006 -2.82456904e-006 -2.82456904e-006
      -2.74690979e-006 -2.74690979e-006 -2.74690979e-006
      -2.35226889e-006 -2.35226889e-006 -2.35226889e-006
      -1.10371923e-006 -1.10371923e-006 -1.10371923e-006
      -1.06918480e-006 -1.06918480e-006 -1.06918480e-006
      -5.80578615e-007 -5.80578615e-007 -5.80578615e-007
      -3.11338772e-006 -3.11338772e-006 -3.11338772e-006 2.34051140e-006
      2.34051140e-006 2.34051140e-006 3.63699837e-006 3.63699837e-006
      3.63699837e-006 2.61368700e-006 2.61368700e-006 2.61368700e-006
      3.20697268e-006 3.20697268e-006 3.20697268e-006 3.13569194e-006
      3.13569194e-006 3.13569194e-006 -9.66475909e-007 -9.66475909e-007
      -9.66475909e-007 -1.05286938e-006 -1.05286938e-006
      -1.05286938e-006 -4.19073984e-007 -4.19073984e-007
      -4.19073984e-007 -6.40710880e-007 -6.40710880e-007
      -6.40710880e-007 1.80169764e-006 1.80169764e-006 1.80169764e-006
      2.51421488e-006 2.51421488e-006 2.51421488e-006 3.80287656e-006
      3.80287656e-006 3.80287656e-006 1.91146660e-006 1.91146660e-006
      1.91146660e-006 -1.05602874e-006 -1.05602874e-006 -1.05602874e-006
      1.43068678e-006 1.43068678e-006 1.43068678e-006 2.10631265e-006
      2.10631265e-006 2.10631265e-006 4.03238346e-006 4.03238346e-006
      4.03238346e-006 2.99494172e-006 2.99494172e-006 2.99494172e-006
      5.09676238e-006 5.09676238e-006 5.09676238e-006 4.79795699e-006
      4.79795699e-006 4.79795699e-006 3.75259970e-006 3.75259970e-006
      3.75259970e-006 2.46201444e-006 2.46201444e-006 2.46201444e-006
      1.47545995e-006 1.47545995e-006 1.47545995e-006 1.39954750e-006
      1.39954750e-006 1.39954750e-006 3.08302560e-006 3.08302560e-006
      3.08302560e-006 2.28116073e-006 2.28116073e-006 2.28116073e-006
      4.50469224e-006 4.50469224e-006 4.50469224e-006 2.82823862e-006
      2.82823862e-006 2.82823862e-006 -1.02369540e-006 -1.02369540e-006
      -1.02369540e-006 -1.17015452e-006 -1.17015452e-006
      -1.17015452e-006 -4.09357256e-007 -4.09357256e-007
      -4.09357256e-007 1.13153499e-006 1.13153499e-006 1.13153499e-006
      -6.36842515e-007 -6.36842515e-007 -6.36842515e-007 4.12710705e-007
      4.12710705e-007 4.12710705e-007 1.09034420e-006 1.09034420e-006
      1.09034420e-006 5.85956514e-007 5.85956514e-007 5.85956514e-007
      -1.74780700e-006 -1.74780700e-006 -1.74780700e-006
      -1.88912736e-006 -1.88912736e-006 -1.88912736e-006
      -1.21276969e-006 -1.21276969e-006 -1.21276969e-006
      -4.42277468e-008 -4.42277468e-008 -4.42277468e-008 1.19703543e-006
      1.19703543e-006 1.19703543e-006 1.62777246e-006 1.62777246e-006
      1.62777246e-006 9.44744784e-007 9.44744784e-007 9.44744784e-007
      -4.90418834e-008 -4.90418834e-008 -4.90418834e-008 5.77746221e-007
      5.77746221e-007 5.77746221e-007 3.65008219e-008 3.65008219e-008
      3.65008219e-008 6.03813874e-007 6.03813874e-007 6.03813874e-007
      5.44822569e-007 5.44822569e-007 5.44822569e-007 7.40109783e-007
      7.40109783e-007 7.40109783e-007 -6.59758939e-007 -6.59758939e-007
      -6.59758939e-007 -7.59528461e-007 -7.59528461e-007
      -7.59528461e-007 3.59218120e-007 3.59218120e-007 3.59218120e-007
      1.93548931e-006 1.93548931e-006 1.93548931e-006 2.44270245e-006
      2.44270245e-006 2.44270245e-006 2.30705908e-007 2.30705908e-007
      2.30705908e-007 -1.06269158e-006 -1.06269158e-006 -1.06269158e-006
      -1.17903846e-006 -1.17903846e-006 -1.17903846e-006
      -1.30102501e-006 -1.30102501e-006 -1.30102501e-006 3.90312579e-007
      3.90312579e-007 3.90312579e-007 1.27671399e-006 1.27671399e-006
      1.27671399e-006 2.72187935e-006 2.72187935e-006 2.72187935e-006
      4.38298366e-006 4.38298366e-006 4.38298366e-006 5.22812525e-006
      5.22812525e-006 5.22812525e-006 5.98550332e-006 5.98550332e-006
      5.98550332e-006 6.15199406e-006 6.15199406e-006 6.15199406e-006
      4.85696637e-006 4.85696637e-006 4.85696637e-006 4.41385873e-006
      4.41385873e-006 4.41385873e-006 3.09896018e-006 3.09896018e-006
      3.09896018e-006 2.61037212e-006 2.61037212e-006 2.61037212e-006
      2.84919543e-006 2.84919543e-006 2.84919543e-006 5.03059846e-006
      5.03059846e-006 5.03059846e-006 4.84091470e-006 4.84091470e-006
      4.84091470e-006 1.58711089e-006 1.58711089e-006 1.58711089e-006
      -6.97001042e-007 -6.97001042e-007 -6.97001042e-007
      -1.74730167e-006 -1.74730167e-006 -1.74730167e-006
      -2.11294264e-006 -2.11294264e-006 -2.11294264e-006
      -1.93497772e-006 -1.93497772e-006 -1.93497772e-006
      -4.25977476e-009 -4.25977476e-009 -4.25977476e-009 1.22179733e-006
      1.22179733e-006 1.22179733e-006 1.46645789e-006 1.46645789e-006
      1.46645789e-006 2.56415797e-006 2.56415797e-006 2.56415797e-006
      2.47549042e-006 2.47549042e-006 2.47549042e-006 1.59631895e-006
      1.59631895e-006 1.59631895e-006 1.13153476e-006 1.13153476e-006
      1.13153476e-006 1.64469702e-006 1.64469702e-006 1.64469702e-006
      3.09367442e-006 3.09367442e-006 3.09367442e-006 4.75782781e-006
      4.75782781e-006 4.75782781e-006 4.34439607e-006 4.34439607e-006
      4.34439607e-006 2.72416196e-006 2.72416196e-006 2.72416196e-006
      6.33587547e-007 6.33587547e-007 6.33587547e-007 -9.21283515e-007
      -9.21283515e-007 -9.21283515e-007 -1.53505027e-006
      -1.53505027e-006 -1.53505027e-006 2.65183559e-007 2.65183559e-007
      2.65183559e-007 2.60615775e-006 2.60615775e-006 2.60615775e-006
      3.43719557e-006 3.43719557e-006 3.43719557e-006 2.48904007e-006
      2.48904007e-006 2.48904007e-006 3.83083534e-006 3.83083534e-006
      3.83083534e-006 2.20966058e-006 2.20966058e-006 2.20966058e-006
      2.21357573e-006 2.21357573e-006 2.21357573e-006 1.67943517e-006
      1.67943517e-006 1.67943517e-006 4.76088729e-007 4.76088729e-007
      4.76088729e-007 -4.99656153e-007 -4.99656153e-007 -4.99656153e-007
      3.87019156e-007 3.87019156e-007 3.87019156e-007 2.11725569e-006
      2.11725569e-006 2.11725569e-006 5.42250245e-006 5.42250245e-006
      5.42250245e-006 2.98624809e-006 2.98624809e-006 2.98624809e-006
      5.86164219e-007 5.86164219e-007 5.86164219e-007 -3.91100116e-007
      -3.91100116e-007 -3.91100116e-007 -1.65460747e-008
      -1.65460747e-008 -1.65460747e-008 2.49484515e-007 2.49484515e-007
      2.49484515e-007 1.06036964e-006 1.06036964e-006 1.06036964e-006
      9.37337802e-007 9.37337802e-007 9.37337802e-007 6.65668495e-007
      6.65668495e-007 6.65668495e-007 1.53711665e-006 1.53711665e-006
      1.53711665e-006 1.82514350e-006 1.82514350e-006 1.82514350e-006
      2.32110506e-006 2.32110506e-006 2.32110506e-006 2.63772131e-006
      2.63772131e-006 2.63772131e-006 3.77154652e-006 3.77154652e-006
      3.77154652e-006 2.62149797e-006 2.62149797e-006 2.62149797e-006
      1.96025348e-006 1.96025348e-006 1.96025348e-006 1.54588543e-006
      1.54588543e-006 1.54588543e-006 2.05459651e-006 2.05459651e-006
      2.05459651e-006 1.10305825e-006 1.10305825e-006 1.10305825e-006
      6.84388908e-007 6.84388908e-007 6.84388908e-007 6.49837773e-007
      6.49837773e-007 6.49837773e-007 -2.12036889e-006 -2.12036889e-006
      -2.12036889e-006 -4.01701845e-006 -4.01701845e-006
      -4.01701845e-006 -4.09179256e-006 -4.09179256e-006
      -4.09179256e-006 -4.20427023e-006 -4.20427023e-006
      -4.20427023e-006 -4.41399243e-006 -4.41399243e-006
      -4.41399243e-006 -1.63939410e-006 -1.63939410e-006
      -1.63939410e-006 1.33986146e-006 1.33986146e-006 1.33986146e-006
      2.23358506e-006 2.23358506e-006 2.23358506e-006 2.59613330e-006
      2.59613330e-006 2.59613330e-006 -2.18699256e-006 -2.18699256e-006
      -2.18699256e-006 -4.13407361e-006 -4.13407361e-006
      -4.13407361e-006 1.12435600e-006 1.12435600e-006 1.12435600e-006
      3.45713693e-006 3.45713693e-006 3.45713693e-006 1.40602401e-006
      1.40602401e-006 1.40602401e-006 1.88684760e-006 1.88684760e-006
      1.88684760e-006 2.00477507e-006 2.00477507e-006 2.00477507e-006
      -8.62608545e-007 -8.62608545e-007 -8.62608545e-007
      -6.71073167e-007 -6.71073167e-007 -6.71073167e-007
      -5.79828281e-007 -5.79828281e-007 -5.79828281e-007
      -1.58319222e-006 -1.58319222e-006 -1.58319222e-006 9.62410581e-007
      9.62410581e-007 9.62410581e-007 1.81528128e-006 1.81528128e-006
      1.81528128e-006 9.30145347e-007 9.30145347e-007 9.30145347e-007
      2.59240636e-007 2.59240636e-007 2.59240636e-007 -3.70167231e-006
      -3.70167231e-006 -3.70167231e-006 -3.15758348e-006
      -3.15758348e-006 -3.15758348e-006 -1.40860868e-006
      -1.40860868e-006 -1.40860868e-006 5.21107665e-007 5.21107665e-007
      5.21107665e-007 1.37038384e-007 1.37038384e-007 1.37038384e-007
      3.18241609e-006 3.18241609e-006 3.18241609e-006 3.53323071e-006
      3.53323071e-006 3.53323071e-006 3.70282191e-006 3.70282191e-006
      3.70282191e-006 3.27714088e-006 3.27714088e-006 3.27714088e-006
      1.76605954e-006 1.76605954e-006 1.76605954e-006 6.00518717e-007
      6.00518717e-007 6.00518717e-007 1.29156410e-006 1.29156410e-006
      1.29156410e-006 1.59453555e-006 1.59453555e-006 1.59453555e-006
      8.21225342e-007 8.21225342e-007 8.21225342e-007 -2.27600580e-007
      -2.27600580e-007 -2.27600580e-007 -8.41022711e-007
      -8.41022711e-007 -8.41022711e-007 7.43754072e-007 7.43754072e-007
      7.43754072e-007 2.68631243e-006 2.68631243e-006 2.68631243e-006
      1.54008353e-006 1.54008353e-006 1.54008353e-006 1.36939389e-006
      1.36939389e-006 1.36939389e-006 8.35403057e-007 8.35403057e-007
      8.35403057e-007 1.26895600e-006 1.26895600e-006 1.26895600e-006
      3.16458539e-007 3.16458539e-007 3.16458539e-007 -2.91937113e-006
      -2.91937113e-006 -2.91937113e-006 -2.40934492e-006
      -2.40934492e-006 -2.40934492e-006 -5.15288889e-007
      -5.15288889e-007 -5.15288889e-007 1.48275808e-006 1.48275808e-006
      1.48275808e-006 3.79209359e-006 3.79209359e-006 3.79209359e-006
      3.89372326e-006 3.89372326e-006 3.89372326e-006 3.39978646e-006
      3.39978646e-006 3.39978646e-006 2.86693489e-006 2.86693489e-006
      2.86693489e-006 1.43411285e-006 1.43411285e-006 1.43411285e-006
      1.44312094e-006 1.44312094e-006 1.44312094e-006 9.27627980e-007
      9.27627980e-007 9.27627980e-007 -4.49156836e-008 -4.49156836e-008
      -4.49156836e-008 6.66218682e-007 6.66218682e-007 6.66218682e-007
      1.49617574e-006 1.49617574e-006 1.49617574e-006 5.06574565e-007
      5.06574565e-007 5.06574565e-007 1.67656719e-006 1.67656719e-006
      1.67656719e-006 4.30532100e-006 4.30532100e-006 4.30532100e-006
      6.03909120e-006 6.03909120e-006 6.03909120e-006 4.70555278e-006
      4.70555278e-006 4.70555278e-006 1.55285170e-006 1.55285170e-006
      1.55285170e-006 -3.43944436e-007 -3.43944436e-007 -3.43944436e-007
      -3.08021708e-006 -3.08021708e-006 -3.08021708e-006
      -5.27172642e-006 -5.27172642e-006 -5.27172642e-006
      -3.77172523e-006 -3.77172523e-006 -3.77172523e-006 3.48482217e-007
      3.48482217e-007 3.48482217e-007 1.24246844e-006 1.24246844e-006
      1.24246844e-006 1.40500038e-006 1.40500038e-006 1.40500038e-006
      1.51991139e-006 1.51991139e-006 1.51991139e-006 1.96519022e-006
      1.96519022e-006 1.96519022e-006 1.03833293e-006 1.03833293e-006
      1.03833293e-006 2.25523240e-006 2.25523240e-006 2.25523240e-006
      1.11913630e-006 1.11913630e-006 1.11913630e-006 -7.30813099e-007
      -7.30813099e-007 -7.30813099e-007 1.43188765e-006 1.43188765e-006
      1.43188765e-006 4.07522612e-006 4.07522612e-006 4.07522612e-006
      3.60392869e-006 3.60392869e-006 3.60392869e-006 1.89777938e-006
      1.89777938e-006 1.89777938e-006 -7.87628210e-007 -7.87628210e-007
      -7.87628210e-007 -7.99691975e-007 -7.99691975e-007
      -7.99691975e-007 -2.37008976e-006 -2.37008976e-006
      -2.37008976e-006 -7.63909895e-007 -7.63909895e-007
      -7.63909895e-007 -2.71543996e-007 -2.71543996e-007
      -2.71543996e-007 6.32843239e-007 6.32843239e-007 6.32843239e-007
      1.10355802e-006 1.10355802e-006 1.10355802e-006 -2.07938524e-006
      -2.07938524e-006 -2.07938524e-006 -2.06703930e-006
      -2.06703930e-006 -2.06703930e-006 -4.11470864e-006
      -4.11470864e-006 -4.11470864e-006 -1.99574743e-006
      -1.99574743e-006 -1.99574743e-006 -8.59529425e-009
      -8.59529425e-009 -8.59529425e-009 1.68502083e-006 1.68502083e-006
      1.68502083e-006 2.26252496e-006 2.26252496e-006 2.26252496e-006
      1.73648868e-006 1.73648868e-006 1.73648868e-006 -1.75715411e-006
      -1.75715411e-006 -1.75715411e-006 -4.99550697e-006
      -4.99550697e-006 -4.99550697e-006 -5.32893182e-006
      -5.32893182e-006 -5.32893182e-006 -5.45751573e-006
      -5.45751573e-006 -5.45751573e-006 -3.09184452e-006
      -3.09184452e-006 -3.09184452e-006 -1.15813918e-006
      -1.15813918e-006 -1.15813918e-006 1.30456613e-006 1.30456613e-006
      1.30456613e-006 -8.05471700e-007 -8.05471700e-007 -8.05471700e-007
      -1.59106804e-007 -1.59106804e-007 -1.59106804e-007
      -8.73278978e-008 -8.73278978e-008 -8.73278978e-008
      -5.74586636e-007 -5.74586636e-007 -5.74586636e-007
      -3.64378735e-007 -3.64378735e-007 -3.64378735e-007
      -1.44442345e-006 -1.44442345e-006 -1.44442345e-006
      -3.10200471e-006 -3.10200471e-006 -3.10200471e-006
      -3.21770017e-006 -3.21770017e-006 -3.21770017e-006
      -1.59383478e-006 -1.59383478e-006 -1.59383478e-006
      -7.75850850e-008 -7.75850850e-008 -7.75850850e-008
      -2.90031585e-006 -2.90031585e-006 -2.90031585e-006
      -3.51770427e-006 -3.51770427e-006 -3.51770427e-006
      -2.55430518e-006 -2.55430518e-006 -2.55430518e-006
      -1.84211603e-006 -1.84211603e-006 -1.84211603e-006
      -2.57407237e-006 -2.57407237e-006 -2.57407237e-006
      -2.44396961e-006 -2.44396961e-006 -2.44396961e-006
      -1.73920057e-006 -1.73920057e-006 -1.73920057e-006
      -1.23089947e-007 -1.23089947e-007 -1.23089947e-007 1.73195690e-006
      1.73195690e-006 1.73195690e-006 3.58676493e-006 3.58676493e-006
      3.58676493e-006 3.71667579e-006 3.71667579e-006 3.71667579e-006
      3.43599118e-006 3.43599118e-006 3.43599118e-006 4.72786496e-007
      4.72786496e-007 4.72786496e-007 -1.98348380e-006 -1.98348380e-006
      -1.98348380e-006 -2.64100163e-006 -2.64100163e-006
      -2.64100163e-006 -3.36102403e-006 -3.36102403e-006
      -3.36102403e-006 -2.52284372e-006 -2.52284372e-006
      -2.52284372e-006 -1.69517227e-006 -1.69517227e-006
      -1.69517227e-006 -3.14432282e-006 -3.14432282e-006
      -3.14432282e-006 -2.49929235e-006 -2.49929235e-006
      -2.49929235e-006 -5.61133675e-006 -5.61133675e-006
      -5.61133675e-006 -5.73360239e-006 -5.73360239e-006
      -5.73360239e-006 -6.74689227e-006 -6.74689227e-006
      -6.74689227e-006 -4.81427469e-006 -4.81427469e-006
      -4.81427469e-006 -4.16170724e-006 -4.16170724e-006
      -4.16170724e-006 8.45878219e-007 8.45878219e-007 8.45878219e-007
      2.30915930e-006 2.30915930e-006 2.30915930e-006 2.09730069e-006
      2.09730069e-006 2.09730069e-006 1.42145473e-006 1.42145473e-006
      1.42145473e-006 -2.51935603e-006 -2.51935603e-006 -2.51935603e-006
      -2.43383647e-006 -2.43383647e-006 -2.43383647e-006 5.99544762e-007
      5.99544762e-007 5.99544762e-007 2.62041084e-007 2.62041084e-007
      2.62041084e-007 2.95048153e-006 2.95048153e-006 2.95048153e-006
      3.76762978e-006 3.76762978e-006 3.76762978e-006 1.89026900e-006
      1.89026900e-006 1.89026900e-006 -6.52984795e-007 -6.52984795e-007
      -6.52984795e-007 -4.78390120e-007 -4.78390120e-007
      -4.78390120e-007 -1.02359735e-007 -1.02359735e-007
      -1.02359735e-007 -2.01018088e-006 -2.01018088e-006
      -2.01018088e-006 4.66767489e-007 4.66767489e-007 4.66767489e-007
      1.24460939e-006 1.24460939e-006 1.24460939e-006 1.55579710e-006
      1.55579710e-006 1.55579710e-006 -2.05768629e-006 -2.05768629e-006
      -2.05768629e-006 -5.66465405e-006 -5.66465405e-006
      -5.66465405e-006 -3.74441765e-006 -3.74441765e-006
      -3.74441765e-006 -3.39383519e-006 -3.39383519e-006
      -3.39383519e-006 -2.75334332e-006 -2.75334332e-006
      -2.75334332e-006 -3.33230628e-006 -3.33230628e-006
      -3.33230628e-006 8.79222625e-007 8.79222625e-007 8.79222625e-007
      2.17299225e-006 2.17299225e-006 2.17299225e-006 2.53688177e-006
      2.53688177e-006 2.53688177e-006 2.85745432e-006 2.85745432e-006
      2.85745432e-006 2.19383855e-006 2.19383855e-006 2.19383855e-006
      3.02651051e-006 3.02651051e-006 3.02651051e-006 1.86836542e-006
      1.86836542e-006 1.86836542e-006 2.31590934e-006 2.31590934e-006
      2.31590934e-006 -4.26675882e-007 -4.26675882e-007 -4.26675882e-007
      -2.88415185e-006 -2.88415185e-006 -2.88415185e-006
      -2.73427577e-006 -2.73427577e-006 -2.73427577e-006
      -1.01585238e-006 -1.01585238e-006 -1.01585238e-006
      -4.07340309e-007 -4.07340309e-007 -4.07340309e-007
      -3.35223331e-006 -3.35223331e-006 -3.35223331e-006
      -2.12284181e-006 -2.12284181e-006 -2.12284181e-006 5.98114980e-007
      5.98114980e-007 5.98114980e-007 1.57683417e-006 1.57683417e-006
      1.57683417e-006 9.03507669e-007 9.03507669e-007 9.03507669e-007
      -2.90922753e-006 -2.90922753e-006 -2.90922753e-006
      -2.25602253e-006 -2.25602253e-006 -2.25602253e-006 1.17401676e-007
      1.17401676e-007 1.17401676e-007 4.34950516e-006 4.34950516e-006
      4.34950516e-006 6.89515946e-006 6.89515946e-006 6.89515946e-006
      8.80448169e-006 8.80448169e-006 8.80448169e-006 8.09057110e-006
      8.09057110e-006 8.09057110e-006 7.27162251e-006 7.27162251e-006
      7.27162251e-006 7.02287798e-006 7.02287798e-006 7.02287798e-006
      7.00362671e-006 7.00362671e-006 7.00362671e-006 5.58246074e-006
      5.58246074e-006 5.58246074e-006 4.39544965e-006 4.39544965e-006
      4.39544965e-006 3.24529537e-006 3.24529537e-006 3.24529537e-006
      2.68695771e-006 2.68695771e-006 2.68695771e-006 3.20480854e-006
      3.20480854e-006 3.20480854e-006 2.65463746e-006 2.65463746e-006
      2.65463746e-006 2.23953134e-006 2.23953134e-006 2.23953134e-006
      1.99945612e-006 1.99945612e-006 1.99945612e-006 1.74521631e-006
      1.74521631e-006 1.74521631e-006 3.08422358e-007 3.08422358e-007
      3.08422358e-007 -9.21512310e-007 -9.21512310e-007 -9.21512310e-007
      -3.90204059e-006 -3.90204059e-006 -3.90204059e-006
      -6.34096568e-006 -6.34096568e-006 -6.34096568e-006
      -4.50893549e-006 -4.50893549e-006 -4.50893549e-006
      -1.52237044e-006 -1.52237044e-006 -1.52237044e-006 6.03478156e-007
      6.03478156e-007 6.03478156e-007 2.22874360e-006 2.22874360e-006
      2.22874360e-006 -1.17413629e-006 -1.17413629e-006 -1.17413629e-006
      -2.68842609e-006 -2.68842609e-006 -2.68842609e-006
      -1.94759559e-006 -1.94759559e-006 -1.94759559e-006
      -2.01950456e-006 -2.01950456e-006 -2.01950456e-006
      -4.77313188e-006 -4.77313188e-006 -4.77313188e-006
      -2.30020919e-006 -2.30020919e-006 -2.30020919e-006
      -2.24714699e-006 -2.24714699e-006 -2.24714699e-006
      -3.26254820e-007 -3.26254820e-007 -3.26254820e-007 1.41605227e-007
      1.41605227e-007 1.41605227e-007 6.56036207e-007 6.56036207e-007
      6.56036207e-007 -1.75093726e-006 -1.75093726e-006 -1.75093726e-006
      -8.15797421e-007 -8.15797421e-007 -8.15797421e-007
      -2.95469113e-006 -2.95469113e-006 -2.95469113e-006
      -4.98828513e-007 -4.98828513e-007 -4.98828513e-007
      -1.10605970e-006 -1.10605970e-006 -1.10605970e-006
      -3.68261499e-006 -3.68261499e-006 -3.68261499e-006
      -2.53182725e-006 -2.53182725e-006 -2.53182725e-006
      -2.84859834e-006 -2.84859834e-006 -2.84859834e-006
      -1.79499966e-006 -1.79499966e-006 -1.79499966e-006
      -3.84738814e-006 -3.84738814e-006 -3.84738814e-006
      -2.43428008e-006 -2.43428008e-006 -2.43428008e-006
      -7.78166736e-007 -7.78166736e-007 -7.78166736e-007
      -2.72279271e-006 -2.72279271e-006 -2.72279271e-006
      -2.63132188e-006 -2.63132188e-006 -2.63132188e-006
      -3.71763304e-006 -3.71763304e-006 -3.71763304e-006
      -4.35042193e-006 -4.35042193e-006 -4.35042193e-006
      -6.40594135e-006 -6.40594135e-006 -6.40594135e-006
      -8.40570465e-006 -8.40570465e-006 -8.40570465e-006
      -9.11417555e-006 -9.11417555e-006 -9.11417555e-006
      -8.17251839e-006 -8.17251839e-006 -8.17251839e-006
      -6.74618195e-006 -6.74618195e-006 -6.74618195e-006
      -1.82315921e-006 -1.82315921e-006 -1.82315921e-006
      -1.51261065e-006 -1.51261065e-006 -1.51261065e-006
      -8.74249395e-007 -8.74249395e-007 -8.74249395e-007
      -1.64273388e-006 -1.64273388e-006 -1.64273388e-006
      -1.32571427e-006 -1.32571427e-006 -1.32571427e-006
      -2.07396488e-006 -2.07396488e-006 -2.07396488e-006
      -1.74044374e-006 -1.74044374e-006 -1.74044374e-006
      -2.99263979e-006 -2.99263979e-006 -2.99263979e-006
      -2.58089949e-006 -2.58089949e-006 -2.58089949e-006
      -1.30283968e-006 -1.30283968e-006 -1.30283968e-006
      -6.58633894e-007 -6.58633894e-007 -6.58633894e-007
      -5.94643552e-007 -5.94643552e-007 -5.94643552e-007
      -2.55407394e-006 -2.55407394e-006 -2.55407394e-006
      -2.85521719e-006 -2.85521719e-006 -2.85521719e-006
      -1.83221289e-006 -1.83221289e-006 -1.83221289e-006
      -2.08411552e-006 -2.08411552e-006 -2.08411552e-006
      -4.02873093e-006 -4.02873093e-006 -4.02873093e-006
      -4.11957399e-006 -4.11957399e-006 -4.11957399e-006
      -2.63241327e-006 -2.63241327e-006 -2.63241327e-006
      -6.68830978e-007 -6.68830978e-007 -6.68830978e-007 2.93218659e-006
      2.93218659e-006 2.93218659e-006 4.13787075e-006 4.13787075e-006
      4.13787075e-006 2.66260031e-006 2.66260031e-006 2.66260031e-006
      7.32451952e-007 7.32451952e-007 7.32451952e-007 -1.06672894e-006
      -1.06672894e-006 -1.06672894e-006 -2.28692556e-006
      -2.28692556e-006 -2.28692556e-006 -4.70196937e-006
      -4.70196937e-006 -4.70196937e-006 -3.28215748e-007
      -3.28215748e-007 -3.28215748e-007 9.50880121e-007 9.50880121e-007
      9.50880121e-007 -1.97899590e-006 -1.97899590e-006 -1.97899590e-006
      -4.50659627e-006 -4.50659627e-006 -4.50659627e-006
      -6.20464652e-006 -6.20464652e-006 -6.20464652e-006
      -6.90168918e-006 -6.90168918e-006 -6.90168918e-006
      -8.22524726e-006 -8.22524726e-006 -8.22524726e-006
      -6.81271558e-006 -6.81271558e-006 -6.81271558e-006
      -4.15920067e-006 -4.15920067e-006 -4.15920067e-006 5.78052308e-008
      5.78052308e-008 5.78052308e-008 1.48801882e-006 1.48801882e-006
      1.48801882e-006 2.69111774e-006 2.69111774e-006 2.69111774e-006
      4.94300457e-006 4.94300457e-006 4.94300457e-006 -5.65226060e-007
      -5.65226060e-007 -5.65226060e-007 -2.46691752e-006
      -2.46691752e-006 -2.46691752e-006 1.49960078e-006 1.49960078e-006
      1.49960078e-006 -1.57489808e-007 -1.57489808e-007 -1.57489808e-007
      1.72924308e-006 1.72924308e-006 1.72924308e-006 2.22686208e-006
      2.22686208e-006 2.22686208e-006 3.07059310e-007 3.07059310e-007
      3.07059310e-007 -2.57959437e-006 -2.57959437e-006 -2.57959437e-006
      -2.51696520e-006 -2.51696520e-006 -2.51696520e-006
      -1.65857602e-006 -1.65857602e-006 -1.65857602e-006
      -2.69756674e-006 -2.69756674e-006 -2.69756674e-006
      -2.78016591e-006 -2.78016591e-006 -2.78016591e-006
      -1.05007973e-006 -1.05007973e-006 -1.05007973e-006
      -3.24914231e-006 -3.24914231e-006 -3.24914231e-006
      -4.79385153e-006 -4.79385153e-006 -4.79385153e-006
      -6.29325859e-006 -6.29325859e-006 -6.29325859e-006
      -3.96666110e-006 -3.96666110e-006 -3.96666110e-006
      -3.39775875e-006 -3.39775875e-006 -3.39775875e-006
      -3.56459805e-006 -3.56459805e-006 -3.56459805e-006
      -3.85394605e-006 -3.85394605e-006 -3.85394605e-006 5.74702426e-007
      5.74702426e-007 5.74702426e-007 1.27493968e-006 1.27493968e-006
      1.27493968e-006 1.77098229e-006 1.77098229e-006 1.77098229e-006
      2.96873304e-006 2.96873304e-006 2.96873304e-006 3.60033164e-006
      3.60033164e-006 3.60033164e-006 2.84060974e-007 2.84060974e-007
      2.84060974e-007 -3.91068966e-007 -3.91068966e-007 -3.91068966e-007
      -1.35563266e-006 -1.35563266e-006 -1.35563266e-006
      -3.71295050e-006 -3.71295050e-006 -3.71295050e-006
      -6.75001866e-006 -6.75001866e-006 -6.75001866e-006
      -8.27134409e-006 -8.27134409e-006 -8.27134409e-006
      -6.87265583e-006 -6.87265583e-006 -6.87265583e-006
      -2.86827049e-006 -2.86827049e-006 -2.86827049e-006
      -3.47403193e-006 -3.47403193e-006 -3.47403193e-006
      -1.55205407e-006 -1.55205407e-006 -1.55205407e-006
      -2.55495358e-008 -2.55495358e-008 -2.55495358e-008 5.40093708e-007
      5.40093708e-007 5.40093708e-007 1.14624311e-006 1.14624311e-006
      1.14624311e-006 -1.09536973e-006 -1.09536973e-006 -1.09536973e-006
      -6.26171470e-007 -6.26171470e-007 -6.26171470e-007 2.93314520e-006
      2.93314520e-006 2.93314520e-006 6.90868228e-006 6.90868228e-006
      6.90868228e-006 8.75042770e-006 8.75042770e-006 8.75042770e-006
      9.63633192e-006 9.63633192e-006 9.63633192e-006 8.57444411e-006
      8.57444411e-006 8.57444411e-006 6.04764682e-006 6.04764682e-006
      6.04764682e-006 5.19028708e-006 5.19028708e-006 5.19028708e-006
      7.46291244e-006 7.46291244e-006 7.46291244e-006 7.66530320e-006
      7.66530320e-006 7.66530320e-006 5.79579637e-006 5.79579637e-006
      5.79579637e-006 4.09135555e-006 4.09135555e-006 4.09135555e-006
      3.47734522e-006 3.47734522e-006 3.47734522e-006 3.34625315e-006
      3.34625315e-006 3.34625315e-006 2.00613135e-006 2.00613135e-006
      2.00613135e-006 4.85184444e-007 4.85184444e-007 4.85184444e-007
      -1.61841717e-006 -1.61841717e-006 -1.61841717e-006
      -1.03750222e-006 -1.03750222e-006 -1.03750222e-006 1.77604250e-007
      1.77604250e-007 1.77604250e-007 1.23326387e-007 1.23326387e-007
      1.23326387e-007 -1.13771557e-006 -1.13771557e-006 -1.13771557e-006
      -3.41603618e-006 -3.41603618e-006 -3.41603618e-006
      -3.49205015e-006 -3.49205015e-006 -3.49205015e-006
      -2.64709274e-006 -2.64709274e-006 -2.64709274e-006
      -5.84241377e-007 -5.84241377e-007 -5.84241377e-007
      -2.27932393e-008 -2.27932393e-008 -2.27932393e-008
      -8.64015590e-007 -8.64015590e-007 -8.64015590e-007
      -5.99774239e-008 -5.99774239e-008 -5.99774239e-008 1.39828330e-006
      1.39828330e-006 1.39828330e-006 -1.12403507e-006 -1.12403507e-006
      -1.12403507e-006 -3.29943305e-006 -3.29943305e-006
      -3.29943305e-006 -1.30048545e-006 -1.30048545e-006
      -1.30048545e-006 -7.54276357e-007 -7.54276357e-007
      -7.54276357e-007 1.32047774e-006 1.32047774e-006 1.32047774e-006
      5.29607917e-007 5.29607917e-007 5.29607917e-007 3.09257700e-007
      3.09257700e-007 3.09257700e-007 -2.64852611e-006 -2.64852611e-006
      -2.64852611e-006 -3.81457454e-007 -3.81457454e-007
      -3.81457454e-007 -1.86831755e-006 -1.86831755e-006
      -1.86831755e-006 -1.56541046e-006 -1.56541046e-006
      -1.56541046e-006 -1.15538910e-006 -1.15538910e-006
      -1.15538910e-006 -4.54137489e-006 -4.54137489e-006
      -4.54137489e-006 -3.17797571e-006 -3.17797571e-006
      -3.17797571e-006 -3.74671210e-008 -3.74671210e-008
      -3.74671210e-008 2.93081757e-006 2.93081757e-006 2.93081757e-006
      1.95335269e-006 1.95335269e-006 1.95335269e-006 -6.23857829e-007
      -6.23857829e-007 -6.23857829e-007 -5.08925086e-006
      -5.08925086e-006 -5.08925086e-006 -6.56435350e-006
      -6.56435350e-006 -6.56435350e-006 -5.69318900e-006
      -5.69318900e-006 -5.69318900e-006 -4.01485249e-006
      -4.01485249e-006 -4.01485249e-006 -2.75668981e-006
      -2.75668981e-006 -2.75668981e-006 -1.73562671e-006
      -1.73562671e-006 -1.73562671e-006 -2.35423772e-006
      -2.35423772e-006 -2.35423772e-006 -2.79828305e-006
      -2.79828305e-006 -2.79828305e-006 -2.65631434e-006
      -2.65631434e-006 -2.65631434e-006 -2.71036015e-006
      -2.71036015e-006 -2.71036015e-006 -9.01379565e-007
      -9.01379565e-007 -9.01379565e-007 3.22885342e-007 3.22885342e-007
      3.22885342e-007 -1.11509326e-006 -1.11509326e-006 -1.11509326e-006
      -2.36942333e-006 -2.36942333e-006 -2.36942333e-006
      -2.16003559e-006 -2.16003559e-006 -2.16003559e-006
      -2.84770340e-006 -2.84770340e-006 -2.84770340e-006
      -1.60312584e-006 -1.60312584e-006 -1.60312584e-006
      -1.81865119e-006 -1.81865119e-006 -1.81865119e-006 6.36621905e-007
      6.36621905e-007 6.36621905e-007 2.47806224e-006 2.47806224e-006
      2.47806224e-006 3.67067469e-006 3.67067469e-006 3.67067469e-006
      3.11508302e-006 3.11508302e-006 3.11508302e-006 -2.12090910e-007
      -2.12090910e-007 -2.12090910e-007 1.93333881e-006 1.93333881e-006
      1.93333881e-006 1.21028597e-006 1.21028597e-006 1.21028597e-006
      -1.59687158e-006 -1.59687158e-006 -1.59687158e-006
      -1.90063304e-006 -1.90063304e-006 -1.90063304e-006
      -3.57048225e-006 -3.57048225e-006 -3.57048225e-006
      -4.70404075e-006 -4.70404075e-006 -4.70404075e-006
      -1.24915073e-006 -1.24915073e-006 -1.24915073e-006 1.21628947e-008
      1.21628947e-008 1.21628947e-008 2.55152628e-007 2.55152628e-007
      2.55152628e-007 7.71647066e-008 7.71647066e-008 7.71647066e-008
      -7.93624395e-007 -7.93624395e-007 -7.93624395e-007
      -2.02038154e-006 -2.02038154e-006 -2.02038154e-006
      -3.24573489e-006 -3.24573489e-006 -3.24573489e-006
      -4.14594297e-006 -4.14594297e-006 -4.14594297e-006
      -2.56016006e-006 -2.56016006e-006 -2.56016006e-006
      -1.27210149e-006 -1.27210149e-006 -1.27210149e-006
      -1.16023944e-006 -1.16023944e-006 -1.16023944e-006
      -1.92198104e-006 -1.92198104e-006 -1.92198104e-006
      -4.62967955e-006 -4.62967955e-006 -4.62967955e-006
      -7.17736930e-006 -7.17736930e-006 -7.17736930e-006
      -9.09193022e-006 -9.09193022e-006 -9.09193022e-006
      -7.15181932e-006 -7.15181932e-006 -7.15181932e-006
      -7.09621509e-006 -7.09621509e-006 -7.09621509e-006
      -3.43482020e-006 -3.43482020e-006 -3.43482020e-006 3.87508919e-007
      3.87508919e-007 3.87508919e-007 2.74816989e-006 2.74816989e-006
      2.74816989e-006 3.36973017e-006 3.36973017e-006 3.36973017e-006
      2.41625088e-007 2.41625088e-007 2.41625088e-007 -4.17959473e-006
      -4.17959473e-006 -4.17959473e-006 -1.48652498e-006
      -1.48652498e-006 -1.48652498e-006 -1.50559322e-006
      -1.50559322e-006 -1.50559322e-006 1.00391571e-006 1.00391571e-006
      1.00391571e-006 3.13815320e-007 3.13815320e-007 3.13815320e-007
      6.29955480e-007 6.29955480e-007 6.29955480e-007 -1.47182061e-006
      -1.47182061e-006 -1.47182061e-006 -1.80313054e-006
      -1.80313054e-006 -1.80313054e-006 -4.07320840e-006
      -4.07320840e-006 -4.07320840e-006 -5.81515769e-006
      -5.81515769e-006 -5.81515769e-006 -4.01742682e-006
      -4.01742682e-006 -4.01742682e-006 -5.44308205e-006
      -5.44308205e-006 -5.44308205e-006 -6.80805351e-006
      -6.80805351e-006 -6.80805351e-006 -9.10876497e-006
      -9.10876497e-006 -9.10876497e-006 -9.38952599e-006
      -9.38952599e-006 -9.38952599e-006 -9.35663047e-006
      -9.35663047e-006 -9.35663047e-006 -1.02004497e-005
      -1.02004497e-005 -1.02004497e-005 -6.36503728e-006
      -6.36503728e-006 -6.36503728e-006 -5.54754251e-006
      -5.54754251e-006 -5.54754251e-006 -6.10743825e-007
      -6.10743825e-007 -6.10743825e-007 3.85115698e-007 3.85115698e-007
      3.85115698e-007 1.46206969e-006 1.46206969e-006 1.46206969e-006
      2.18895730e-006 2.18895730e-006 2.18895730e-006 4.00810177e-006
      4.00810177e-006 4.00810177e-006 7.09909330e-007 7.09909330e-007
      7.09909330e-007 7.99094664e-007 7.99094664e-007 7.99094664e-007
      3.92188923e-007 3.92188923e-007 3.92188923e-007 -2.35051129e-006
      -2.35051129e-006 -2.35051129e-006 -3.52520533e-006
      -3.52520533e-006 -3.52520533e-006 -6.91137666e-006
      -6.91137666e-006 -6.91137666e-006 -8.17888304e-006
      -8.17888304e-006 -8.17888304e-006 -6.32556521e-006
      -6.32556521e-006 -6.32556521e-006 -5.40939391e-006
      -5.40939391e-006 -5.40939391e-006 -1.49336495e-006
      -1.49336495e-006 -1.49336495e-006 1.85515273e-006 1.85515273e-006
      1.85515273e-006 2.14950887e-006 2.14950887e-006 2.14950887e-006
      3.14467661e-006 3.14467661e-006 3.14467661e-006 1.60609659e-006
      1.60609659e-006 1.60609659e-006 1.51878453e-006 1.51878453e-006
      1.51878453e-006 3.06869515e-006 3.06869515e-006 3.06869515e-006
      6.50802531e-006 6.50802531e-006 6.50802531e-006 8.63492278e-006
      8.63492278e-006 8.63492278e-006 9.64250739e-006 9.64250739e-006
      9.64250739e-006 8.76966624e-006 8.76966624e-006 8.76966624e-006
      7.00632427e-006 7.00632427e-006 7.00632427e-006 5.22295568e-006
      5.22295568e-006 5.22295568e-006 5.03411320e-006 5.03411320e-006
      5.03411320e-006 4.19543449e-006 4.19543449e-006 4.19543449e-006
      5.16383352e-006 5.16383352e-006 5.16383352e-006 3.67500184e-006
      3.67500184e-006 3.67500184e-006 8.86249381e-007 8.86249381e-007
      8.86249381e-007 1.30610351e-006 1.30610351e-006 1.30610351e-006
      -6.00526107e-007 -6.00526107e-007 -6.00526107e-007
      -1.16046499e-006 -1.16046499e-006 -1.16046499e-006
      -1.00311945e-006 -1.00311945e-006 -1.00311945e-006
      -5.29681643e-007 -5.29681643e-007 -5.29681643e-007
      -1.14879754e-006 -1.14879754e-006 -1.14879754e-006
      -3.20375648e-006 -3.20375648e-006 -3.20375648e-006
      -3.56718579e-006 -3.56718579e-006 -3.56718579e-006
      -6.59336092e-006 -6.59336092e-006 -6.59336092e-006
      -6.06387403e-006 -6.06387403e-006 -6.06387403e-006
      -1.49915104e-006 -1.49915104e-006 -1.49915104e-006 4.91237756e-007
      4.91237756e-007 4.91237756e-007 2.27833493e-006 2.27833493e-006
      2.27833493e-006 3.11467306e-006 3.11467306e-006 3.11467306e-006
      1.26255804e-006 1.26255804e-006 1.26255804e-006 4.92911170e-007
      4.92911170e-007 4.92911170e-007 -3.09502781e-007 -3.09502781e-007
      -3.09502781e-007 -3.80368601e-006 -3.80368601e-006
      -3.80368601e-006 -1.82212409e-006 -1.82212409e-006
      -1.82212409e-006 4.56049690e-007 4.56049690e-007 4.56049690e-007
      1.64031712e-006 1.64031712e-006 1.64031712e-006 7.89413036e-007
      7.89413036e-007 7.89413036e-007 -1.30802107e-006 -1.30802107e-006
      -1.30802107e-006 -1.60011325e-006 -1.60011325e-006
      -1.60011325e-006 1.12239832e-006 1.12239832e-006 1.12239832e-006
      6.06026390e-007 6.06026390e-007 6.06026390e-007 3.03640900e-006
      3.03640900e-006 3.03640900e-006 -7.81169092e-007 -7.81169092e-007
      -7.81169092e-007 -8.42260874e-008 -8.42260874e-008
      -8.42260874e-008 -2.42956730e-007 -2.42956730e-007
      -2.42956730e-007 5.96059920e-007 5.96059920e-007 5.96059920e-007
      3.46222100e-006 3.46222100e-006 3.46222100e-006 3.91272306e-006
      3.91272306e-006 3.91272306e-006 1.75020296e-006 1.75020296e-006
      1.75020296e-006 -4.65836638e-006 -4.65836638e-006 -4.65836638e-006
      -5.16809450e-006 -5.16809450e-006 -5.16809450e-006
      -3.85386056e-006 -3.85386056e-006 -3.85386056e-006 2.59317687e-007
      2.59317687e-007 2.59317687e-007 2.23496727e-006 2.23496727e-006
      2.23496727e-006 3.09628444e-006 3.09628444e-006 3.09628444e-006
      4.06338086e-006 4.06338086e-006 4.06338086e-006 3.23064000e-006
      3.23064000e-006 3.23064000e-006 2.35695006e-006 2.35695006e-006
      2.35695006e-006 2.06660388e-006 2.06660388e-006 2.06660388e-006
      2.37422159e-006 2.37422159e-006 2.37422159e-006 3.05862000e-006
      3.05862000e-006 3.05862000e-006 2.36726328e-006 2.36726328e-006
      2.36726328e-006 3.67323128e-006 3.67323128e-006 3.67323128e-006
      2.97908127e-006 2.97908127e-006 2.97908127e-006 3.00749662e-006
      3.00749662e-006 3.00749662e-006 2.64599203e-006 2.64599203e-006
      2.64599203e-006 1.77237337e-006 1.77237337e-006 1.77237337e-006
      1.30965009e-006 1.30965009e-006 1.30965009e-006 3.31704655e-006
      3.31704655e-006 3.31704655e-006 4.30720002e-006 4.30720002e-006
      4.30720002e-006 2.80784093e-006 2.80784093e-006 2.80784093e-006
      7.25327936e-007 7.25327936e-007 7.25327936e-007 -1.37033439e-007
      -1.37033439e-007 -1.37033439e-007 1.15261457e-006 1.15261457e-006
      1.15261457e-006 -2.65293409e-007 -2.65293409e-007 -2.65293409e-007
      -2.00324530e-006 -2.00324530e-006 -2.00324530e-006
      -1.38501287e-006 -1.38501287e-006 -1.38501287e-006
      -9.55155201e-007 -9.55155201e-007 -9.55155201e-007
      -8.23367486e-007 -8.23367486e-007 -8.23367486e-007
      -1.00700856e-006 -1.00700856e-006 -1.00700856e-006
      -2.99575072e-006 -2.99575072e-006 -2.99575072e-006
      -1.47448782e-006 -1.47448782e-006 -1.47448782e-006
      -1.76727247e-006 -1.76727247e-006 -1.76727247e-006
      -4.00293720e-006 -4.00293720e-006 -4.00293720e-006
      -7.64458764e-006 -7.64458764e-006 -7.64458764e-006
      -9.75310832e-006 -9.75310832e-006 -9.75310832e-006
      -4.97819337e-006 -4.97819337e-006 -4.97819337e-006
      -3.33831304e-006 -3.33831304e-006 -3.33831304e-006 5.91968842e-007
      5.91968842e-007 5.91968842e-007 1.37515508e-006 1.37515508e-006
      1.37515508e-006 -2.77336494e-006 -2.77336494e-006 -2.77336494e-006
      -5.82712391e-006 -5.82712391e-006 -5.82712391e-006
      -6.37691801e-006 -6.37691801e-006 -6.37691801e-006
      -6.51752680e-006 -6.51752680e-006 -6.51752680e-006
      -7.26278859e-006 -7.26278859e-006 -7.26278859e-006
      -5.30207762e-006 -5.30207762e-006 -5.30207762e-006
      -1.82614281e-006 -1.82614281e-006 -1.82614281e-006
      -2.16106848e-008 -2.16106848e-008 -2.16106848e-008
      -5.33191724e-007 -5.33191724e-007 -5.33191724e-007 1.62212174e-007
      1.62212174e-007 1.62212174e-007 -5.85791804e-006 -5.85791804e-006
      -5.85791804e-006 -4.34571848e-006 -4.34571848e-006
      -4.34571848e-006 -4.94409915e-006 -4.94409915e-006
      -4.94409915e-006 -9.49903551e-007 -9.49903551e-007
      -9.49903551e-007 2.01174225e-006 2.01174225e-006 2.01174225e-006
      2.61959349e-006 2.61959349e-006 2.61959349e-006 -8.16371823e-007
      -8.16371823e-007 -8.16371823e-007 -1.56357748e-006
      -1.56357748e-006 -1.56357748e-006 -1.12176065e-006
      -1.12176065e-006 -1.12176065e-006 -2.16132594e-006
      -2.16132594e-006 -2.16132594e-006 -7.48469972e-007
      -7.48469972e-007 -7.48469972e-007 -2.59823628e-006
      -2.59823628e-006 -2.59823628e-006 -4.08534379e-006
      -4.08534379e-006 -4.08534379e-006 -5.90652735e-006
      -5.90652735e-006 -5.90652735e-006 -5.39350822e-006
      -5.39350822e-006 -5.39350822e-006 -4.61352647e-006
      -4.61352647e-006 -4.61352647e-006 -6.79487766e-006
      -6.79487766e-006 -6.79487766e-006 -4.76540299e-006
      -4.76540299e-006 -4.76540299e-006 -3.94318249e-006
      -3.94318249e-006 -3.94318249e-006 -5.61312312e-008
      -5.61312312e-008 -5.61312312e-008 2.36812025e-006 2.36812025e-006
      2.36812025e-006 2.47454136e-006 2.47454136e-006 2.47454136e-006
      2.65447125e-006 2.65447125e-006 2.65447125e-006 1.38621567e-006
      1.38621567e-006 1.38621567e-006 1.17953743e-006 1.17953743e-006
      1.17953743e-006 2.99853468e-006 2.99853468e-006 2.99853468e-006
      8.79831930e-007 8.79831930e-007 8.79831930e-007 -3.03225693e-006
      -3.03225693e-006 -3.03225693e-006 -2.98042028e-006
      -2.98042028e-006 -2.98042028e-006 -6.76545687e-006
      -6.76545687e-006 -6.76545687e-006 -8.90404408e-006
      -8.90404408e-006 -8.90404408e-006 -1.07062097e-005
      -1.07062097e-005 -1.07062097e-005 -9.85758743e-006
      -9.85758743e-006 -9.85758743e-006 -3.28925739e-006
      -3.28925739e-006 -3.28925739e-006 8.37680147e-007 8.37680147e-007
      8.37680147e-007 1.86129625e-006 1.86129625e-006 1.86129625e-006
      2.35289326e-006 2.35289326e-006 2.35289326e-006 9.45738520e-007
      9.45738520e-007 9.45738520e-007 1.20851359e-006 1.20851359e-006
      1.20851359e-006 2.90523803e-006 2.90523803e-006 2.90523803e-006
      6.19318735e-006 6.19318735e-006 6.19318735e-006 8.38312826e-006
      8.38312826e-006 8.38312826e-006 9.49529749e-006 9.49529749e-006
      9.49529749e-006 1.01400992e-005 1.01400992e-005 1.01400992e-005
      9.69162829e-006 9.69162829e-006 9.69162829e-006 7.87414501e-006
      7.87414501e-006 7.87414501e-006 7.88895522e-006 7.88895522e-006
      7.88895522e-006 7.32062790e-006 7.32062790e-006 7.32062790e-006
      8.40418124e-006 8.40418124e-006 8.40418124e-006 6.23680580e-006
      6.23680580e-006 6.23680580e-006 1.08007964e-006 1.08007964e-006
      1.08007964e-006 -1.79400473e-007 -1.79400473e-007 -1.79400473e-007
      -1.77083325e-006 -1.77083325e-006 -1.77083325e-006
      -2.92762184e-006 -2.92762184e-006 -2.92762184e-006
      -2.61354080e-006 -2.61354080e-006 -2.61354080e-006
      -4.98683994e-006 -4.98683994e-006 -4.98683994e-006
      -5.26397889e-006 -5.26397889e-006 -5.26397889e-006
      -5.72532690e-006 -5.72532690e-006 -5.72532690e-006
      -2.10305689e-006 -2.10305689e-006 -2.10305689e-006
      -2.52229370e-006 -2.52229370e-006 -2.52229370e-006
      -2.83637110e-006 -2.83637110e-006 -2.83637110e-006
      -1.66173800e-006 -1.66173800e-006 -1.66173800e-006
      -3.39010086e-007 -3.39010086e-007 -3.39010086e-007 1.04051105e-006
      1.04051105e-006 1.04051105e-006 3.24245775e-006 3.24245775e-006
      3.24245775e-006 5.81998393e-007 5.81998393e-007 5.81998393e-007
      5.94723474e-007 5.94723474e-007 5.94723474e-007 -5.78395884e-007
      -5.78395884e-007 -5.78395884e-007 -3.29270733e-006
      -3.29270733e-006 -3.29270733e-006 1.57953970e-008 1.57953970e-008
      1.57953970e-008 2.30797627e-006 2.30797627e-006 2.30797627e-006
      3.35743789e-006 3.35743789e-006 3.35743789e-006 6.34394780e-007
      6.34394780e-007 6.34394780e-007 9.77401555e-008 9.77401555e-008
      9.77401555e-008 -5.73215459e-007 -5.73215459e-007 -5.73215459e-007
      1.79014785e-006 1.79014785e-006 1.79014785e-006 1.64497214e-006
      1.64497214e-006 1.64497214e-006 1.34216396e-006 1.34216396e-006
      1.34216396e-006 -2.30459614e-006 -2.30459614e-006 -2.30459614e-006
      -1.57397324e-006 -1.57397324e-006 -1.57397324e-006
      -4.84902046e-007 -4.84902046e-007 -4.84902046e-007 3.07888854e-006
      3.07888854e-006 3.07888854e-006 3.67785333e-006 3.67785333e-006
      3.67785333e-006 3.19486730e-006 3.19486730e-006 3.19486730e-006
      1.91180493e-006 1.91180493e-006 1.91180493e-006 -2.70007718e-006
      -2.70007718e-006 -2.70007718e-006 -4.86545696e-006
      -4.86545696e-006 -4.86545696e-006 -4.13234875e-006
      -4.13234875e-006 -4.13234875e-006 -6.18083561e-007
      -6.18083561e-007 -6.18083561e-007 5.51084440e-007 5.51084440e-007
      5.51084440e-007 1.73048613e-006 1.73048613e-006 1.73048613e-006
      2.55520445e-006 2.55520445e-006 2.55520445e-006 2.13212070e-006
      2.13212070e-006 2.13212070e-006 2.60274419e-006 2.60274419e-006
      2.60274419e-006 1.47598007e-006 1.47598007e-006 1.47598007e-006
      5.01533862e-007 5.01533862e-007 5.01533862e-007 1.05234790e-006
      1.05234790e-006 1.05234790e-006 7.38681294e-008 7.38681294e-008
      7.38681294e-008 4.04459524e-006 4.04459524e-006 4.04459524e-006
      4.60073261e-006 4.60073261e-006 4.60073261e-006 3.50055188e-006
      3.50055188e-006 3.50055188e-006 1.57460534e-006 1.57460534e-006
      1.57460534e-006 -6.63323931e-007 -6.63323931e-007 -6.63323931e-007
      -1.29189084e-006 -1.29189084e-006 -1.29189084e-006 4.27073837e-006
      4.27073837e-006 4.27073837e-006 7.07814934e-006 7.07814934e-006
      7.07814934e-006 6.02143382e-006 6.02143382e-006 6.02143382e-006
      3.64588686e-006 3.64588686e-006 3.64588686e-006 3.57001568e-006
      3.57001568e-006 3.57001568e-006 3.30037074e-006 3.30037074e-006
      3.30037074e-006 4.52667194e-007 4.52667194e-007 4.52667194e-007
      -2.42996634e-006 -2.42996634e-006 -2.42996634e-006
      -2.62294679e-006 -2.62294679e-006 -2.62294679e-006
      -1.25069471e-006 -1.25069471e-006 -1.25069471e-006
      -9.87212047e-007 -9.87212047e-007 -9.87212047e-007
      -1.82981319e-006 -1.82981319e-006 -1.82981319e-006
      -2.90617481e-006 -2.90617481e-006 -2.90617481e-006
      -2.83501231e-006 -2.83501231e-006 -2.83501231e-006
      -2.55900818e-006 -2.55900818e-006 -2.55900818e-006
      -7.97932444e-006 -7.97932444e-006 -7.97932444e-006
      -9.11298503e-006 -9.11298503e-006 -9.11298503e-006
      -1.06550424e-005 -1.06550424e-005 -1.06550424e-005
      -6.47049319e-006 -6.47049319e-006 -6.47049319e-006
      -2.56877729e-006 -2.56877729e-006 -2.56877729e-006 1.38741279e-006
      1.38741279e-006 1.38741279e-006 8.78581943e-007 8.78581943e-007
      8.78581943e-007 -3.11342069e-006 -3.11342069e-006 -3.11342069e-006
      -6.63701394e-006 -6.63701394e-006 -6.63701394e-006
      -4.43382078e-006 -4.43382078e-006 -4.43382078e-006
      -4.61117224e-006 -4.61117224e-006 -4.61117224e-006
      -5.45565581e-006 -5.45565581e-006 -5.45565581e-006
      -6.13958991e-006 -6.13958991e-006 -6.13958991e-006
      -4.37391236e-006 -4.37391236e-006 -4.37391236e-006
      -1.49218215e-006 -1.49218215e-006 -1.49218215e-006 7.16618331e-007
      7.16618331e-007 7.16618331e-007 2.17323782e-006 2.17323782e-006
      2.17323782e-006 -1.67170015e-006 -1.67170015e-006 -1.67170015e-006
      -2.88470375e-007 -2.88470375e-007 -2.88470375e-007
      -5.82574216e-007 -5.82574216e-007 -5.82574216e-007 5.88633156e-006
      5.88633156e-006 5.88633156e-006 7.41770009e-006 7.41770009e-006
      7.41770009e-006 6.93404900e-006 6.93404900e-006 6.93404900e-006
      4.05589708e-006 4.05589708e-006 4.05589708e-006 1.37439326e-006
      1.37439326e-006 1.37439326e-006 1.75028231e-006 1.75028231e-006
      1.75028231e-006 -6.18837248e-008 -6.18837248e-008 -6.18837248e-008
      -6.66507674e-007 -6.66507674e-007 -6.66507674e-007
      -5.76396997e-006 -5.76396997e-006 -5.76396997e-006
      -5.00734450e-006 -5.00734450e-006 -5.00734450e-006
      -3.69696454e-006 -3.69696454e-006 -3.69696454e-006
      -1.23401389e-006 -1.23401389e-006 -1.23401389e-006 7.84855786e-007
      7.84855786e-007 7.84855786e-007 -2.00032628e-006 -2.00032628e-006
      -2.00032628e-006 -8.97985103e-007 -8.97985103e-007
      -8.97985103e-007 9.69233270e-007 9.69233270e-007 9.69233270e-007
      6.72358192e-006 6.72358192e-006 6.72358192e-006 8.36150048e-006
      8.36150048e-006 8.36150048e-006 8.85979262e-006 8.85979262e-006
      8.85979262e-006 1.01129144e-005 1.01129144e-005 1.01129144e-005
      6.38273559e-006 6.38273559e-006 6.38273559e-006 4.16668263e-006
      4.16668263e-006 4.16668263e-006 2.50955100e-006 2.50955100e-006
      2.50955100e-006 -1.10852284e-006 -1.10852284e-006 -1.10852284e-006
      -3.16518651e-007 -3.16518651e-007 -3.16518651e-007
      -2.46621084e-006 -2.46621084e-006 -2.46621084e-006
      -7.70234055e-006 -7.70234055e-006 -7.70234055e-006
      -1.06032494e-005 -1.06032494e-005 -1.06032494e-005
      -1.25788947e-005 -1.25788947e-005 -1.25788947e-005
      -1.09089406e-005 -1.09089406e-005 -1.09089406e-005
      -6.83069311e-006 -6.83069311e-006 -6.83069311e-006
      -5.43920066e-007 -5.43920066e-007 -5.43920066e-007 1.33973219e-006
      1.33973219e-006 1.33973219e-006 1.49639459e-006 1.49639459e-006
      1.49639459e-006 -1.15845019e-007 -1.15845019e-007 -1.15845019e-007
      6.72685360e-007 6.72685360e-007 6.72685360e-007 2.43978184e-006
      2.43978184e-006 2.43978184e-006 5.84307963e-006 5.84307963e-006
      5.84307963e-006 7.90048125e-006 7.90048125e-006 7.90048125e-006
      8.96817346e-006 8.96817346e-006 8.96817346e-006 9.71844747e-006
      9.71844747e-006 9.71844747e-006 9.73584429e-006 9.73584429e-006
      9.73584429e-006 8.29566943e-006 8.29566943e-006 8.29566943e-006
      8.02839531e-006 8.02839531e-006 8.02839531e-006 6.88509817e-006
      6.88509817e-006 6.88509817e-006 7.68518294e-006 7.68518294e-006
      7.68518294e-006 4.93535572e-006 4.93535572e-006 4.93535572e-006
      -3.64872591e-007 -3.64872591e-007 -3.64872591e-007
      -1.07686549e-006 -1.07686549e-006 -1.07686549e-006
      -2.83743361e-006 -2.83743361e-006 -2.83743361e-006
      -4.15909881e-006 -4.15909881e-006 -4.15909881e-006
      -5.83924111e-006 -5.83924111e-006 -5.83924111e-006
      -6.91989862e-006 -6.91989862e-006 -6.91989862e-006
      -7.45702664e-006 -7.45702664e-006 -7.45702664e-006
      -8.44538226e-006 -8.44538226e-006 -8.44538226e-006
      -2.66677694e-006 -2.66677694e-006 -2.66677694e-006
      -3.63779282e-006 -3.63779282e-006 -3.63779282e-006
      -5.51103767e-006 -5.51103767e-006 -5.51103767e-006
      -4.43421641e-006 -4.43421641e-006 -4.43421641e-006
      -4.09030054e-006 -4.09030054e-006 -4.09030054e-006
      -6.33421178e-006 -6.33421178e-006 -6.33421178e-006
      -4.45617479e-006 -4.45617479e-006 -4.45617479e-006
      -4.56212501e-006 -4.56212501e-006 -4.56212501e-006
      -1.75280627e-006 -1.75280627e-006 -1.75280627e-006
      -2.53286544e-006 -2.53286544e-006 -2.53286544e-006
      -4.10516395e-006 -4.10516395e-006 -4.10516395e-006 2.13569564e-007
      2.13569564e-007 2.13569564e-007 3.25184351e-006 3.25184351e-006
      3.25184351e-006 2.27668852e-006 2.27668852e-006 2.27668852e-006
      -1.93339034e-007 -1.93339034e-007 -1.93339034e-007
      -9.80206210e-007 -9.80206210e-007 -9.80206210e-007
      -5.43857993e-007 -5.43857993e-007 -5.43857993e-007 1.08181780e-006
      1.08181780e-006 1.08181780e-006 -2.95411041e-006 -2.95411041e-006
      -2.95411041e-006 -3.92286483e-006 -3.92286483e-006
      -3.92286483e-006 -4.24439941e-006 -4.24439941e-006
      -4.24439941e-006 -1.48712650e-006 -1.48712650e-006
      -1.48712650e-006 1.55627117e-006 1.55627117e-006 1.55627117e-006
      4.34413096e-006 4.34413096e-006 4.34413096e-006 5.36186690e-006
      5.36186690e-006 5.36186690e-006 4.11066549e-006 4.11066549e-006
      4.11066549e-006 1.80100653e-006 1.80100653e-006 1.80100653e-006
      -3.05050662e-006 -3.05050662e-006 -3.05050662e-006
      -4.62922935e-006 -4.62922935e-006 -4.62922935e-006
      -3.44728119e-006 -3.44728119e-006 -3.44728119e-006
      -1.09038535e-006 -1.09038535e-006 -1.09038535e-006 3.20227059e-007
      3.20227059e-007 3.20227059e-007 2.65891413e-006 2.65891413e-006
      2.65891413e-006 4.44133229e-006 4.44133229e-006 4.44133229e-006
      3.87552973e-006 3.87552973e-006 3.87552973e-006 4.03532295e-006
      4.03532295e-006 4.03532295e-006 1.27052476e-006 1.27052476e-006
      1.27052476e-006 -1.13450415e-006 -1.13450415e-006 -1.13450415e-006
      -2.36368510e-006 -2.36368510e-006 -2.36368510e-006
      -3.22292362e-006 -3.22292362e-006 -3.22292362e-006 1.44882085e-006
      1.44882085e-006 1.44882085e-006 3.81774862e-006 3.81774862e-006
      3.81774862e-006 2.71168278e-006 2.71168278e-006 2.71168278e-006
      2.12836142e-007 2.12836142e-007 2.12836142e-007 -3.23435597e-006
      -3.23435597e-006 -3.23435597e-006 -8.99608381e-007
      -8.99608381e-007 -8.99608381e-007 4.07441121e-006 4.07441121e-006
      4.07441121e-006 6.88146201e-006 6.88146201e-006 6.88146201e-006
      7.71391024e-006 7.71391024e-006 7.71391024e-006 5.32951026e-006
      5.32951026e-006 5.32951026e-006 3.47170771e-006 3.47170771e-006
      3.47170771e-006 1.64392009e-006 1.64392009e-006 1.64392009e-006
      3.40938868e-006 3.40938868e-006 3.40938868e-006 1.34760762e-006
      1.34760762e-006 1.34760762e-006 1.27414330e-006 1.27414330e-006
      1.27414330e-006 1.87074534e-006 1.87074534e-006 1.87074534e-006
      -2.48478756e-007 -2.48478756e-007 -2.48478756e-007
      -3.55647444e-007 -3.55647444e-007 -3.55647444e-007 1.11965255e-006
      1.11965255e-006 1.11965255e-006 -5.11538509e-008 -5.11538509e-008
      -5.11538509e-008 -1.32118760e-009 -1.32118760e-009
      -1.32118760e-009 -3.01583509e-006 -3.01583509e-006
      -3.01583509e-006 -3.59656474e-006 -3.59656474e-006
      -3.59656474e-006 -8.27075201e-006 -8.27075201e-006
      -8.27075201e-006 -6.22155767e-006 -6.22155767e-006
      -6.22155767e-006 -1.68994563e-006 -1.68994563e-006
      -1.68994563e-006 1.13559929e-006 1.13559929e-006 1.13559929e-006
      -1.45661545e-006 -1.45661545e-006 -1.45661545e-006
      -4.25817507e-006 -4.25817507e-006 -4.25817507e-006
      -5.14056956e-006 -5.14056956e-006 -5.14056956e-006
      -2.57014676e-006 -2.57014676e-006 -2.57014676e-006
      -7.15922283e-007 -7.15922283e-007 -7.15922283e-007
      -6.18465674e-006 -6.18465674e-006 -6.18465674e-006
      -7.99155987e-006 -7.99155987e-006 -7.99155987e-006
      -2.99547014e-006 -2.99547014e-006 -2.99547014e-006
      -4.81832217e-007 -4.81832217e-007 -4.81832217e-007
      -9.93456069e-007 -9.93456069e-007 -9.93456069e-007 3.92930588e-006
      3.92930588e-006 3.92930588e-006 1.57708348e-006 1.57708348e-006
      1.57708348e-006 -2.40354092e-009 -2.40354092e-009 -2.40354092e-009
      -3.96902635e-007 -3.96902635e-007 -3.96902635e-007 3.62164064e-006
      3.62164064e-006 3.62164064e-006 7.13454074e-006 7.13454074e-006
      7.13454074e-006 5.56847544e-006 5.56847544e-006 5.56847544e-006
      8.70767451e-007 8.70767451e-007 8.70767451e-007 -5.42487214e-007
      -5.42487214e-007 -5.42487214e-007 2.55845691e-007 2.55845691e-007
      2.55845691e-007 -3.01616774e-006 -3.01616774e-006 -3.01616774e-006
      -6.59958414e-006 -6.59958414e-006 -6.59958414e-006
      -9.00320902e-006 -9.00320902e-006 -9.00320902e-006
      -8.79735035e-006 -8.79735035e-006 -8.79735035e-006
      -7.28424175e-006 -7.28424175e-006 -7.28424175e-006
      -7.91678212e-006 -7.91678212e-006 -7.91678212e-006
      -6.64000800e-006 -6.64000800e-006 -6.64000800e-006
      -6.37735775e-006 -6.37735775e-006 -6.37735775e-006
      -5.64400307e-006 -5.64400307e-006 -5.64400307e-006
      -5.44529030e-006 -5.44529030e-006 -5.44529030e-006
      -6.03325589e-007 -6.03325589e-007 -6.03325589e-007 5.19201967e-006
      5.19201967e-006 5.19201967e-006 7.22327059e-006 7.22327059e-006
      7.22327059e-006 5.45495050e-006 5.45495050e-006 5.45495050e-006
      5.32065815e-006 5.32065815e-006 5.32065815e-006 2.85550300e-006
      2.85550300e-006 2.85550300e-006 2.44168291e-006 2.44168291e-006
      2.44168291e-006 -1.37255824e-006 -1.37255824e-006 -1.37255824e-006
      -7.29185729e-007 -7.29185729e-007 -7.29185729e-007
      -3.29958948e-006 -3.29958948e-006 -3.29958948e-006
      -9.12787073e-006 -9.12787073e-006 -9.12787073e-006
      -1.20225413e-005 -1.20225413e-005 -1.20225413e-005
      -1.36307817e-005 -1.36307817e-005 -1.36307817e-005
      -1.26247514e-005 -1.26247514e-005 -1.26247514e-005
      -7.42712336e-006 -7.42712336e-006 -7.42712336e-006
      -1.22286167e-006 -1.22286167e-006 -1.22286167e-006 1.33786455e-006
      1.33786455e-006 1.33786455e-006 -9.86624627e-007 -9.86624627e-007
      -9.86624627e-007 -2.52609948e-006 -2.52609948e-006
      -2.52609948e-006 -1.66721770e-006 -1.66721770e-006
      -1.66721770e-006 7.12321878e-007 7.12321878e-007 7.12321878e-007
      5.84989084e-006 5.84989084e-006 5.84989084e-006 7.59435989e-006
      7.59435989e-006 7.59435989e-006 8.18158060e-006 8.18158060e-006
      8.18158060e-006 8.92362550e-006 8.92362550e-006 8.92362550e-006
      8.84227575e-006 8.84227575e-006 8.84227575e-006 7.42582461e-006
      7.42582461e-006 7.42582461e-006 7.22832101e-006 7.22832101e-006
      7.22832101e-006 6.14190776e-006 6.14190776e-006 6.14190776e-006
      6.82047403e-006 6.82047403e-006 6.82047403e-006 3.48400749e-006
      3.48400749e-006 3.48400749e-006 -5.56912823e-007 -5.56912823e-007
      -5.56912823e-007 -1.58228340e-006 -1.58228340e-006
      -1.58228340e-006 -5.21299080e-006 -5.21299080e-006
      -5.21299080e-006 -5.40800465e-006 -5.40800465e-006
      -5.40800465e-006 -7.29522299e-006 -7.29522299e-006
      -7.29522299e-006 -7.41808208e-006 -7.41808208e-006
      -7.41808208e-006 -8.35979063e-006 -8.35979063e-006
      -8.35979063e-006 -5.74070100e-006 -5.74070100e-006
